tree
version=v4
num_class=6
num_tree_per_iteration=6
label_index=0
max_feature_idx=11
objective=multiclass num_class:6
feature_names=font_size is_bold is_italic relative_font_size x_position_normalized is_centered space_below text_length is_all_caps starts_with_numbering line_height span_count
feature_infos=[6:32.040000915527344] [0:1] [0:1] [0.59999999999999998:3.2000000000000002] [0.065000000000000002:0.89100000000000001] [0:1] [0:348] [1:138] [0:1] [0:1] [10:749.7889404296875] none
tree_sizes=3316 1573 1259 2802 2112 1571 3352 3450 3425 3396 3489 3505 3357 3465 3457 3409 3476 3499 3370 3451 3459 3417 3484 3510 3365 3435 3469 3413 3477 3509 3362 3445 3466 3399 3498 3521 3375 3464 3463 3422 3504 3532 3380 3475 3461 3408 3507 3540 3388 3472 3452 3432 3496 3538 3398 3480 3480 3428 3489 3552 3382 3470 3476 3431 3488 3546 3376 3474 3479 3428 3542 3551 3386 3470 3467 3432 3542 3559 3424 3471 3474 3434 3554 3552 3378 3491 3479 3427 3551 3567 3406 3497 3500 3423 3563 3544 3434 3503 3497 3460 3556 3548 3430 3508 3491 3452 3561 3556 3410 3496 3503 3471 3574 3557 3434 3517 3513 3461 3576 3558 3457 3521 3507 3481 3587 3562 3441 3514 3509 3476 3587 3564 3450 3507 3522 3471 3586 3574 3457 3526 3516 3482 3596 3581 3453 3539 3521 3488 3584 3601 3459 3544 3510 3498 3610 3582 3454 3539 3529 3504 3597 3599 3460 3549 3558 3508 3592 3621 3464 3566 3540 3505 3593 3607 3465 3528 3552 3520 3615 3606 3473 3543 3559 3516 3603 3610 3469 3545 3565 3511 3620 3608 3480 3580 3564 3534 3616 3615 3481 3575 3571 3536 3610 3617 3497 3577 3579 3523 3634 3625 3501 3574 3580 3529 3622 3631 3501 3590 3578 3544 3632 3640 3506 3586 3589 3535 3637 3633 3516 3602 3608 3549 3628 3646 3514 3580 3618 3528 3646 3656 3510 3614 3605 3559 3640 3660 3527 3602 3601 3531 3633 3669 3530 3614 3605 3554 3628 3670 3541 3580 3613 3578 3646 3667 3535 3617 3602 3571 3640 3681 3537 3621 3603 3602 3658 3565 3555 3608 3631 3574 3441 3337 3554 3616 3640 3577 3564 2881 3564 3621 3640 3579 3446 3003 3573 3626 3638 3572 2879 2656 3570 3622 3650 3599 3336 2432 3566 3630 3658 3594 3101 1843 3570 3631 3680 3597 2657 2304 3568 3631 3657 3589 2311 1839 3580 3625 3439 3602 2193 1851 3573 3650 3210 3617 1963 1733 3597 3652 3092 3641 1962 1398 3603 3433 3201 3642 2078 1501 3614 3543 2419 3632 1388 1286 3620 3201 2079 3622 1499 1281 3625 2517 1965 3624 1843 1158 3611 2645 1735 3635 1623 1167 3636 2742 2404 3649 1507 1168 3628 2644 2291 3682 1274 937 3615 2400 2293 3645 1383 1160 3639 1953 2278 3639 1269 1043 3650 2063 2407 3415 1160 1043 3639 2286 2637 2423 1156 937 3648 1720 2616 3083 1046 826 3643 1726 2401 2193 1147 823 3643 1611 1492 3525 1039 710 3652 1493 1368 1971 1048 602 3670 1384 1038 2402 825 600 3652 1601 1036 1740 717 711 3659 1383 928 1626 722 603 3659 1379 1265 1170 721 602 3662 1154 1036 1055 715 597 3659 1384 1499 943 603 596 3417 1387 1034 1723 491 596 3313 1275 1731 2634 487 594 3441 1277 1608 1728 603 487 3092 1277 1163 1615 490 491 2861 1165 1048 1603 490 490 2766 940 1054 1620 490 376 2767 938 826 1043 486 375 2316 940 829 1511 490 377 3004 942 602 1622 490 488 2303 835 488 1627 491 375 2421 945 487 1507 493 375 2185 718 227 1280 488 376 2553 942 227 1283 491 375 2085 827 227 1389 491 377 2204 721 227 1276 494 375 2080 952 227 1284 493 376 1970 826 227 1393 491 376 1970 722 227 719 496 376 1861 829 227 830 494 375 1740 715 227 945 495 378 1746 827 227 829 492 378 1626 715 227 718 379 378

Tree=0
num_leaves=30
num_cat=0
split_feature=6 0 4 7 1 4 3 1 0 7 7 7 7 10 4 4 4 7 4 0 7 7 0 0 4 0 4 7 7
split_gain=1352.74 108.649 130.525 128.222 101.597 176.371 169.023 92.71 69.2315 38.7666 22.0592 20.0335 35.7241 10.6687 20.4907 3.90067 3.65498 2.21688 1.07765 0.0884177 0.429696 3.81201 2.27374e-13 2.84217e-14 2.84217e-14 3.55271e-15 1.77636e-15 8.88178e-16 8.88178e-16
threshold=1.0000000180025095e-35 11.589474678039553 0.12000000000000001 10.500000000000002 1.0000000180025095e-35 0.14850000000000002 1.0500000000000003 1.0000000180025095e-35 9.8522000312805194 7.5000000000000009 17.500000000000004 24.500000000000004 43.500000000000007 208.6244812011719 0.24850000000000003 0.17150000000000001 0.37200000000000005 34.500000000000007 0.44500000000000006 11.023791790008547 31.500000000000004 28.500000000000004 13.20687246322632 10.503791809082033 0.85450000000000015 9.5727000236511248 0.34250000000000008 3.5000000000000004 34.500000000000007
decision_type=2 2 2 2 2 2 2 2 2 2 2 2 2 2 2 2 2 2 2 2 2 2 2 2 2 2 2 2 2
left_child=1 4 3 -3 19 6 8 -2 27 -10 -11 13 -13 26 -15 -7 22 -8 -16 23 21 -21 -9 24 -1 -17 -4 -6 -25
right_child=7 2 11 -5 5 15 17 16 9 10 -12 12 -14 14 18 25 -18 -19 -20 20 -22 -23 -24 28 -26 -27 -28 -29 -30
leaf_value=-0.0076722809814598891 -0.41179083859855459 -0.0076722809814600418 -0.0076722809814599724 -0.97755681926248772 -0.0076722809814600279 -0.14622721502160674 -0.97755681926248783 -0.9775568192624875 -0.082278783926154356 -0.71304285427675285 -0.36499816350604908 -0.49261455012197386 -0.0076722809814599169 -0.42333708310190044 -0.10466073480956269 -0.0076722809814598891 -0.83900188522234098 -0.83900188522234065 -0.0076722809814599169 -0.0076722809814599169 -0.0076722809814598891 -0.15315496172361409 -0.97755681926248783 -0.0076722809814598752 -0.0076722809814598891 -0.0076722809814598891 -0.0076722809814599169 -0.0076722809814599169 -0.0076722809814599169
leaf_weight=176.30964115262032 3.7117819190025356 2.062101066112521 7.4235638380050712 4.0210970789194107 3.7117819190025374 2.1652061194181433 2.4745212793350211 10.207400277256967 2.6807313859462738 3.4024667590856552 3.9179920256137848 3.5055718123912802 2.6807313859462738 2.1652061194181433 2.0621010661125183 11.135345757007597 2.1652061194181433 2.1652061194181442 2.5776263326406479 14.228497356176378 57.017094478011131 2.0621010661125174 5.5676728785037986 7.0111436247825605 3.0931515991687766 21.858271300792694 2.7838364392518997 3.9179920256137848 2.2683111727237701
leaf_count=1710 36 20 72 39 36 21 24 99 26 33 38 34 26 21 20 108 21 21 25 138 553 20 54 68 30 212 27 38 22
internal_value=-0.0997465 -0.0521229 -0.236483 -0.648782 -0.0352223 -0.15568 -0.375869 -0.866713 -0.234546 -0.407625 -0.526765 -0.128369 -0.282473 -0.0723313 -0.16932 -0.016205 -0.960835 -0.912898 -0.0507783 -0.00881736 -0.0117646 -0.0260878 -0.977557 -0.00767228 -0.00767228 -0.00767228 -0.00767228 -0.00767228 -0.00767228
internal_weight=370.353 348.701 29.2818 6.0832 319.419 57.4295 22.2707 21.6521 17.631 10.0012 7.32046 23.1986 6.1863 17.0123 6.80493 35.1588 17.9403 4.63973 4.63973 261.99 73.3077 16.2906 15.7751 188.682 179.403 32.9936 10.2074 7.62977 9.27945
internal_count=3592 3382 284 59 3098 557 216 210 171 97 71 225 60 165 66 341 174 45 45 2541 711 158 153 1830 1740 320 99 74 90
is_linear=0
shrinkage=1


Tree=1
num_leaves=14
num_cat=0
split_feature=0 10 3 1 0 6 4 6 8 4 1 7 0
split_gain=378.814 596.5 287.766 151.189 44.7966 12.4364 32.377 46.5419 6.63392 5.20802 91.9203 8.88178e-16 2.22045e-16
threshold=13.20687246322632 132.84048461914065 1.3200000000000001 1.0000000180025095e-35 16.98000001907349 1.0000000180025095e-35 0.20650000000000002 27.500000000000004 1.0000000180025095e-35 0.11700000000000001 1.0000000180025095e-35 20.500000000000004 15.635099887847902
decision_type=2 2 2 2 2 2 2 2 2 2 2 2 2
left_child=5 2 -2 -4 -5 9 -7 -8 12 10 11 -1 -3
right_child=1 8 3 4 -6 6 7 -9 -10 -11 -12 -13 -14
leaf_value=-4.245765825811425 -3.7027767248170607 -4.245765825811425 -2.6167985228283355 0.50538880788925056 -0.98783121984524858 -4.245765825811425 -2.6943683943989596 -4.245765825811425 -3.8435516769267113 -4.245765825811425 -2.6167985228283364 -4.245765825811425 -4.245765825811425
leaf_weight=0.8839956521987905 0.55249728262424369 0.58933043479919511 0.36833152174949624 0.44199782609939575 0.36833152174949646 1.7679913043975823 0.38674809783697117 0.38674809783697128 0.49724755436182011 52.855573371052742 0.36833152174949635 4.9356423914432526 1.749574728310108
leaf_count=48 30 32 20 24 20 96 21 21 27 2870 20 268 95
internal_value=-4.16111 -3.2824 -1.81964 -0.936926 -0.173348 -4.22628 -4.00968 -3.47007 -4.17525 -4.2356 -4.1488 -4.24577 -4.24577
internal_weight=66.1523 4.56731 1.73116 1.17866 0.810329 61.585 2.54149 0.773496 2.83615 59.0435 6.18797 5.81964 2.33891
internal_count=3592 248 94 64 44 3344 138 42 154 3206 336 316 127
is_linear=0
shrinkage=1


Tree=2
num_leaves=11
num_cat=0
split_feature=3 9 3 7 7 0 4 4 0 4
split_gain=603.06 776.376 486.51 120.262 77.9537 27.658 76.0038 179.241 1.42109e-14 4.44089e-16
threshold=1.1200000000000003 1.0000000180025095e-35 1.1450000000000002 13.500000000000002 27.500000000000004 12.002399921417238 0.15650000000000003 0.17650000000000002 9.5727000236511248 0.12000000000000001
decision_type=2 2 2 2 2 2 2 2 2 2
left_child=8 2 -2 -3 -5 6 9 -8 -1 -4
right_child=1 3 5 4 -6 -7 7 -9 -10 -11
leaf_value=-3.6770397763637885 -1.1896284921988327 -2.5110657369114664 -3.6770397763637885 -0.56777567115759586 -1.9003174305316795 -3.6770397763637885 -1.6492588381858377 -3.6770397763637881 -3.6770397763637885 -3.6770397763637881
leaf_weight=6.8183336257934561 0.9648585319519033 0.77188682556152288 1.6402595043182358 1.2543160915374754 0.6754009723663329 5.9821228981018066 0.73972487449645985 1.0613443851470945 94.459650278091431 1.1578302383422849
leaf_count=212 30 24 51 39 21 186 23 33 2937 36
internal_value=-3.59134 -2.98219 -3.33926 -1.45614 -1.03417 -3.53528 -3.35089 -2.8442 -3.67704 -3.67704
internal_weight=115.526 14.2477 11.5461 2.7016 1.92972 10.5813 4.59916 1.80107 101.278 2.79809
internal_count=3592 443 359 84 60 329 143 56 3149 87
is_linear=0
shrinkage=1


Tree=3
num_leaves=26
num_cat=0
split_feature=10 3 1 4 4 7 4 2 7 4 10 0 10 0 0 7 7 0 4 4 7 0 7 10 10
split_gain=621.363 553.189 116.79 216.484 209.102 279.565 76.4873 53.4949 18.205 6.00232 4.67739 0.679444 2.91219 5.88418 0.196021 0.953066 8.45506 1.42109e-14 7.10543e-15 3.55271e-15 3.55271e-15 8.88178e-16 8.88178e-16 4.44089e-16 2.22045e-16
threshold=13.000000000000002 0.9900000000000001 1.0000000180025095e-35 0.14850000000000002 0.14600000000000002 44.500000000000007 0.13700000000000004 1.0000000180025095e-35 17.500000000000004 0.15900000000000003 16.000000000000004 11.835000038146974 281.58978271484381 12.401374816894533 11.023791790008547 31.500000000000004 28.500000000000004 9.5727000236511248 0.81050000000000011 0.40750000000000003 91.500000000000014 22.601091384887699 3.5000000000000004 410.74130249023443 274.12780761718756
decision_type=2 2 2 2 2 2 2 2 2 2 2 2 2 2 2 2 2 2 2 2 2 2 2 2 2
left_child=1 6 11 4 10 7 -1 8 -6 -5 -4 14 21 -14 17 16 22 -2 -19 -11 -17 -13 -16 24 -22
right_child=2 -3 3 9 5 -7 -8 -9 -10 19 -12 12 13 -15 15 20 -18 18 -20 -21 23 -23 -24 -25 -26
leaf_value=-1.1453628734887382 -3.296569485700096 -3.296569485700096 -3.0814488244789602 -3.0814488244789602 -1.9520653530679986 -3.296569485700096 -2.1014547011382314 -1.5038973088572987 -2.4360868408155532 -3.2965694857000956 -3.296569485700096 -3.296569485700096 -2.9738884938683925 -3.2965694857000956 -3.296569485700096 -3.296569485700096 -2.9738884938683925 -3.296569485700096 -3.296569485700096 -3.296569485700096 -3.2965694857000956 -3.2965694857000956 -3.296569485700096 -3.2965694857000956 -3.2965694857000956
leaf_weight=2.5102191343903533 3.2075022272765628 2.9285889901220798 1.394566185772417 1.3945661857724214 1.4875372648239138 2.324276976287365 1.2551095671951773 1.6734794229269025 1.6269938834011552 7.8560561798512962 3.6723576225340366 5.8571779802441579 0.92971079051494632 1.4410517252981661 0.97619633004069228 21.801718037575487 0.92971079051494587 80.234041221439838 1.4875372648239125 10.691674090921877 1.3945661857724188 1.9523926600813863 5.438808124512434 1.3945661857724188 1.115652948617935
leaf_count=54 69 63 30 30 32 50 27 36 35 169 79 126 20 31 21 469 20 1726 32 230 30 42 117 30 24
internal_value=-3.20973 -2.26578 -3.24915 -3.07865 -2.74645 -2.39672 -1.46406 -1.9599 -2.20491 -3.28153 -3.23736 -3.29189 -3.2671 -3.17003 -3.29403 -3.28749 -3.25572 -3.29657 -3.29657 -3.29657 -3.29657 -3.29657 -3.29657 -3.29657 -3.29657
internal_weight=166.976 6.69392 160.282 32.1215 12.1792 7.11229 3.76533 4.78801 3.11453 19.9423 5.06692 128.161 10.1803 2.37076 117.98 33.0512 7.34472 84.9291 81.7216 18.5477 25.7065 7.80957 6.415 3.90479 2.51022
internal_count=3592 144 3448 691 262 153 81 103 67 429 109 2757 219 51 2538 711 158 1827 1758 399 553 168 138 84 54
is_linear=0
shrinkage=1


Tree=4
num_leaves=19
num_cat=0
split_feature=6 10 1 1 7 7 0 7 7 7 10 0 4 0 4 0 4 10
split_gain=179.609 29.7258 131.54 21.0273 71.985 525.211 3.55271e-15 1.77636e-15 8.88178e-16 8.88178e-16 8.88178e-16 4.44089e-16 2.22045e-16 1.11022e-16 1.11022e-16 5.55112e-17 5.55112e-17 5.55112e-17
threshold=42.500000000000007 13.000000000000002 1.0000000180025095e-35 1.0000000180025095e-35 38.500000000000007 41.500000000000007 9.8522000312805194 49.500000000000007 105.50000000000001 103.50000000000001 702.25961303710949 10.503791809082033 0.37200000000000005 11.023791790008547 0.25450000000000006 13.20687246322632 0.62150000000000005 325.83360290527349
decision_type=2 2 2 2 2 2 2 2 2 2 2 2 2 2 2 2 2 2
left_child=1 2 -1 6 11 -6 -3 -8 9 10 -9 -5 -13 14 -7 -15 -14 -10
right_child=-2 3 -4 4 5 13 7 8 17 -11 -12 12 16 15 -16 -17 -18 -19
leaf_value=-2.302056334601966 -1.9532753173636137 -5.092304472507994 -5.0923044725079949 -5.0923044725079949 0.1033299911792378 -5.0923044725079949 -5.0923044725079949 -5.0923044725079949 -5.092304472507994 -5.092304472507994 -5.092304472507994 -5.0923044725079949 -5.092304472507994 -5.092304472507994 -5.092304472507994 -5.092304472507994 -5.092304472507994 -5.092304472507994
leaf_weight=0.21503464132547978 0.19114190340042014 1.2663151100277961 0.78846035152673721 2.572451449930667 0.23096313327550877 0.5893542021512983 11.484442695975305 8.1155666485428739 0.26282011717557985 0.39024805277586061 0.19910614937543947 0.86013856530189492 0.36635531485080719 0.18317765742540359 0.17521341145038605 0.28671285510063171 0.21503464132547379 0.21503464132547379
leaf_count=27 24 159 99 323 29 74 1442 1019 33 49 25 108 46 23 22 36 27 27
internal_value=-5.00841 -5.02896 -4.49439 -5.04853 -4.8733 -4.27343 -5.0923 -5.0923 -5.0923 -5.0923 -5.0923 -5.0923 -5.0923 -5.0923 -5.0923 -5.0923 -5.0923 -5.0923
internal_weight=28.6076 28.4164 1.00349 27.4129 5.4794 1.46542 21.9335 20.6672 9.18278 8.70492 8.31467 4.01398 1.44153 1.23446 0.764568 0.469891 0.58139 0.477855
internal_count=3592 3568 126 3442 688 184 2754 2595 1153 1093 1044 504 181 155 96 59 73 60
is_linear=0
shrinkage=1


Tree=5
num_leaves=14
num_cat=0
split_feature=0 10 6 7 3 4 4 4 4 0 0 4 4
split_gain=189.544 728.78 21.7149 43.2674 6.48704 34.9481 1.77636e-15 1.77636e-15 1.77636e-15 1.11022e-16 5.55112e-17 5.55112e-17 5.55112e-17
threshold=16.98000001907349 106.57318115234376 17.500000000000004 38.500000000000007 1.1600000000000001 0.33250000000000007 0.6925 0.58800000000000008 0.50050000000000006 14.025724887847902 24.24532508850098 0.66100000000000014 0.5635
decision_type=2 2 2 2 2 2 2 2 2 2 2 2 2
left_child=2 -2 4 -4 6 9 7 8 -1 -6 -3 -9 -10
right_child=1 10 3 -5 5 -7 -8 11 12 -11 -12 -13 -14
leaf_value=-5.4369806951061577 3.02420657152775 -5.4369806951061577 -5.4369806951061577 -3.2255340231450385 -5.4369806951061577 -4.0402775338675516 -5.4369806951061577 -5.4369806951061568 -5.4369806951061577 -5.4369806951061577 -5.4369806951061577 -5.4369806951061577 -5.4369806951061577
leaf_weight=15.284112803637994 0.13000539736822148 0.18087707459926605 0.25435838615521689 0.13565780594944954 0.62741735251620301 0.21479152608662833 1.7183322086930264 0.15826744027435857 0.3900161921046682 0.45219268649816513 0.28827283764258027 0.18087707459926605 0.28827283764258027
leaf_count=2704 23 32 45 24 111 38 304 28 69 80 51 32 51
internal_value=-5.35325 -3.60106 -5.40653 -4.66778 -5.42145 -5.20521 -5.43698 -5.43698 -5.43698 -5.43698 -5.43698 -5.43698 -5.43698
internal_weight=20.3035 0.599155 19.7043 0.390016 19.3143 1.2944 18.0199 16.3015 15.9624 1.07961 0.46915 0.339145 0.678289
internal_count=3592 106 3486 69 3417 229 3188 2884 2824 191 83 60 120
is_linear=0
shrinkage=1


Tree=6
num_leaves=31
num_cat=0
split_feature=0 1 4 3 9 0 7 7 4 4 4 0 10 7 10 10 0 4 4 10 7 4 0 7 7 6 10 7 7 10
split_gain=192.593 49.8675 53.288 45.713 30.652 24.4461 9.12288 12.835 8.51407 25.3512 6.5763 6.21803 9.30912 5.11954 3.59079 1.51952 3.97999 1.09437 2.94019 0.222899 0.100307 0.24125 0.0985745 0.4594 3.22822 0.0474221 0.0468158 0.00646264 0.00345438 0.000394231
threshold=11.589474678039553 1.0000000180025095e-35 0.15900000000000003 1.1850000000000003 1.0000000180025095e-35 9.8522000312805194 8.5000000000000018 41.500000000000007 0.16700000000000004 0.15650000000000003 0.13700000000000004 15.635099887847902 132.84048461914065 14.500000000000002 376.63204956054693 225.79895019531253 13.20687246322632 0.41200000000000003 0.34250000000000008 148.6298522949219 40.500000000000007 0.44500000000000006 11.023791790008547 31.500000000000004 28.500000000000004 1.0000000180025095e-35 191.23016357421878 19.500000000000004 38.500000000000007 55.407501220703132
decision_type=2 2 2 2 2 2 2 2 2 2 2 2 2 2 2 2 2 2 2 2 2 2 2 2 2 2 2 2 2 2
left_child=1 22 5 10 8 -3 -7 13 9 11 27 25 -13 -8 -15 16 -6 18 19 -10 -4 -22 29 24 -24 -5 -19 -2 -29 -1
right_child=3 2 20 4 15 6 7 -9 17 -11 -12 12 -14 14 -16 -17 -18 26 -20 -21 21 -23 23 -25 -26 -27 -28 28 -30 -31
leaf_value=0.091736947350565756 -0.16282828372722949 0.090649997058708104 0.090663629737681259 0.091199630868282922 -0.17449502585120602 -0.0089655375931480263 -0.25862857068532447 0.0016161104993907785 0.054625957510325708 -0.21553719832031129 -0.26415563233052514 -0.15267919357284521 0.091144707088828672 -0.18939280107811926 -0.092181938341617753 -0.19128700894530004 -0.071787436773454685 0.1088830928894034 -0.04795809925949044 0.093745342015720781 0.090649997058708104 0.13480365124940949 0.090649997058708104 0.090649997058708104 -0.039263625848748047 0.10706742487895589 0.091352930045832198 -0.16763548128774924 -0.16471461093066925 0.090649997058708104
leaf_weight=3.4080005362629882 8.9612186551094073 6.5888411849737158 23.894756339490417 4.8100739121437091 8.2066319435834902 5.9591890424489966 5.870271831750876 4.8152511566877356 2.248658483847974 5.43837746977806 9.107034355401991 3.2696886174380779 3.0049650222063065 9.1739647686481458 6.4864397495985022 4.9063788503408423 6.9835068583488455 2.3338041678071013 2.5004849936813116 4.1348722502589226 3.6505741700530043 1.8720513954758642 12.287298426032065 49.238232098519802 2.2653767466545096 3.095484271645546 4.3872862383723259 8.099012643098833 8.0969239175319654 159.73487953841686
leaf_count=36 30 74 268 52 30 34 28 32 21 23 36 24 32 39 27 18 36 12 29 36 41 14 138 553 20 15 46 27 27 1794
internal_value=0.0278529 0.0668211 -0.00808553 -0.100576 -0.0443567 -0.0848976 -0.120702 -0.145975 0.0118684 -0.0319797 -0.191342 0.038418 -0.0359106 -0.178983 -0.149129 -0.142904 -0.127276 0.0669938 0.04396 0.0799652 0.0934709 0.105617 0.0893695 0.0860364 0.0704267 0.0974128 0.09744 -0.164983 -0.166175 0.0906727
internal_weight=384.83 295.245 68.3113 89.5844 55.3202 38.894 32.3051 26.3459 35.2237 19.6186 34.2642 14.1802 6.27465 21.5307 15.6604 20.0965 15.1901 15.6051 8.88402 6.38353 29.4174 5.52263 226.934 63.7909 14.5527 7.90556 6.72109 25.1572 16.1959 163.143
internal_count=3592 3098 557 494 374 234 160 126 290 146 120 123 56 94 66 84 66 144 86 57 323 55 2541 711 158 67 58 84 54 1830
is_linear=0
shrinkage=0.1


Tree=7
num_leaves=31
num_cat=0
split_feature=0 10 0 8 0 7 3 4 10 7 7 7 4 6 4 1 7 0 1 1 4 0 4 2 7 4 0 10 10 4
split_gain=83.4187 284.418 18.9033 36.1458 14.4709 10.3351 6.29187 4.57468 21.8394 20.9393 4.53706 3.60597 1.11859 0.33045 0.00315319 0.00189908 0.000449585 0.000119457 2.21841e-05 1.465e-05 2.53894e-05 2.00473e-05 1.1259e-05 6.98842e-06 8.38297e-06 4.6173e-06 2.45952e-06 2.40048e-06 8.91186e-07 7.62609e-07
threshold=16.98000001907349 55.407501220703132 11.835000038146974 1.0000000180025095e-35 21.032350540161136 66.500000000000014 1.3200000000000001 0.11700000000000001 173.13000488281253 30.500000000000004 17.500000000000004 50.500000000000007 0.15150000000000002 17.500000000000004 0.20650000000000002 1.0000000180025095e-35 18.500000000000004 13.20687246322632 1.0000000180025095e-35 1.0000000180025095e-35 0.14850000000000002 9.8522000312805194 0.13700000000000004 1.0000000180025095e-35 20.500000000000004 0.28300000000000008 28.003607749938968 387.65185546875006 158.09423828125003 0.17150000000000001
decision_type=2 2 2 2 2 2 2 2 2 2 2 2 2 2 2 2 2 2 2 2 2 2 2 2 2 2 2 2 2 2
left_child=2 -2 7 5 -3 6 14 8 9 -1 12 13 -8 -12 17 -10 -16 18 28 -9 21 -21 -20 24 -23 -6 -27 -25 -4 -22
right_child=1 4 3 -5 25 -7 10 19 15 -11 11 -13 -14 -15 16 -17 -18 -19 22 20 29 23 -24 27 -26 26 -28 -29 -30 -31
leaf_value=0.72565605944591249 3.0663653563705218 0.55810959715878505 -0.084510097676501139 0.58290325014768685 -0.084973738331184906 0.29957235601140569 0.17790082195417195 -0.084455221660249769 -0.084455191979814825 -0.084454040068404582 -0.086344337332983287 0.073324387739698099 0.066729890848738357 -0.17036838261039977 -0.09125460022318363 -0.089457544733552594 -0.088490750966027931 -0.086121269139855197 -0.08493539461941757 -0.084454040068404762 -0.084597396541879463 -0.084953496480679638 -0.085490572790078878 -0.085279289034106406 -0.08439503757442314 -0.084815538661423301 -0.08445404006840454 -0.084999579749340359 -0.084694864491881183 -0.084448817319470668
leaf_weight=0.73188507556915172 0.38081538956612293 0.46301518008112896 0.96295567601918997 1.1862670239061124 0.67344812303781487 1.1324192360043532 1.9987142682075503 35.023308116942644 4.3720019422471523 0.56565602123737335 0.97574386000633262 1.7368841059505937 1.6541180508211253 0.89957508444786072 1.0993286734446885 0.91832730174064625 1.2667107032611964 1.0149076916277406 1.1962366886436937 1.1627373769879326 0.37091095000505436 0.94508068636059761 0.52587217278778564 0.55703589878976345 0.37562284432351589 0.33827878534793854 0.42424201592803001 0.68305007368326187 0.35813475586473942 5.0325943510979414
leaf_count=6 21 11 59 22 30 24 29 2227 278 36 38 15 18 3 25 12 34 27 54 74 21 44 18 21 29 17 27 30 19 323
internal_value=-0.0226766 0.57215 -0.0429937 0.0517515 0.0719688 0.00924007 -0.0147773 -0.0728857 0.0048476 0.372493 0.0489741 -0.0304947 0.127559 -0.12665 -0.0868734 -0.0853235 -0.0897749 -0.0851818 -0.0848684 -0.0844846 -0.0845975 -0.0847984 -0.0851049 -0.0849547 -0.0847947 -0.0847829 -0.0846144 -0.0851252 -0.0845602 -0.084459
internal_weight=69.0259 2.2798 66.7461 16.0079 1.89898 14.8216 13.6892 50.7382 6.58787 1.29754 7.26504 3.6122 3.65283 1.87532 6.42415 5.29033 2.36604 4.05811 3.0432 44.1503 9.12703 3.72353 1.72211 2.56079 1.3207 1.43597 0.762521 1.24009 1.32109 5.40351
internal_count=3592 106 3486 385 85 363 339 3101 332 42 103 56 47 41 236 290 59 177 150 2769 542 198 72 124 73 74 44 51 78 344
is_linear=0
shrinkage=0.1


Tree=8
num_leaves=31
num_cat=0
split_feature=3 0 7 7 9 10 7 7 3 7 10 3 10 9 0 1 4 0 7 7 7 4 7 0 7 4 7 7 10 7
split_gain=117.356 23.896 13.6587 9.86736 10.3687 4.09405 5.50548 3.3892 3.23964 2.88687 1.31211 1.02512 0.0099415 0.0013108 0.000407512 0.000100938 0.000152159 0.000111914 4.38861e-05 3.90374e-05 5.15488e-05 3.88647e-05 2.17841e-05 1.47629e-05 2.61887e-05 4.18991e-06 3.89155e-06 4.33508e-07 3.86035e-07 1.00715e-07
threshold=1.1200000000000003 14.674079895019533 50.500000000000007 27.500000000000004 1.0000000180025095e-35 259.86764526367193 7.5000000000000009 20.500000000000004 1.1850000000000003 59.500000000000007 98.440216064453139 1.1850000000000003 313.43399047851568 1.0000000180025095e-35 11.835000038146974 1.0000000180025095e-35 0.14850000000000002 9.8522000312805194 7.5000000000000009 38.500000000000007 44.500000000000007 0.13700000000000004 14.500000000000002 20.020000457763675 16.500000000000004 0.17150000000000001 17.500000000000004 19.500000000000004 210.55957031250003 40.500000000000007
decision_type=2 2 2 2 2 2 2 2 2 2 2 2 2 2 2 2 2 2 2 2 2 2 2 2 2 2 2 2 2 2
left_child=14 2 3 4 5 6 -2 -6 -5 -4 11 -8 -7 22 15 -1 17 -17 -19 26 -21 27 28 24 -24 -18 -20 -16 -3 -27
right_child=1 13 9 8 7 12 10 -9 -10 -11 -12 -13 -14 -15 21 16 25 18 19 20 -22 -23 23 -25 -26 29 -28 -29 -30 -31
leaf_value=-0.085335008549958652 0.23729230167562348 -0.085320355962468106 0.070158632539894267 0.19766858612527774 0.25448304898438984 -0.10092182745216394 0.034874790446156219 0.14998956763243906 0.31487248902725995 -0.10838094014434448 0.10089905358804624 -0.085554634853712744 -0.085534199054477733 -0.089750727286619258 -0.086146650727656621 -0.085333114397766988 -0.085591934226662947 -0.08555591072958639 -0.086638917714031413 -0.085233449569790232 -0.086521151075077338 -0.086877459111752431 -0.086162349343650191 -0.086147445736133255 -0.085203311467821508 -0.08533311439776714 -0.086407298879031813 -0.086240650737543098 -0.085417817053282774 -0.085304411776890562
leaf_weight=68.848570028319955 1.6785715967416805 1.1544789872132235 1.6209590993821614 4.4845919087529165 5.079169537872076 0.75831323862075783 1.7274150252342226 7.9818103015422821 4.9742382755503058 2.0522610805928707 1.4899000935256479 1.1963430047035215 0.94072779081761837 0.9560132324695586 0.79188604652881611 2.0322589874267605 0.6474233977496614 0.84954436495900143 1.7109541520476343 0.62556647695600964 0.61798632144927979 1.4630994088947771 0.48768650228157662 0.86289089184720058 0.68421718454919755 7.2776842117309553 1.2593045495450494 1.2895760983228681 0.62720361351966847 1.4693240672349928
leaf_count=2505 13 45 20 22 24 9 6 27 35 38 12 42 32 12 21 74 21 29 39 28 15 33 18 28 38 265 31 33 22 55
internal_value=-0.0221144 0.123095 0.15252 0.17459 0.136162 0.0448627 0.083144 0.190625 0.259304 -0.029593 0.0245194 -0.0144025 -0.092402 -0.0864394 -0.0854319 -0.0853882 -0.0856105 -0.08596 -0.0862116 -0.0863438 -0.0858734 -0.0864825 -0.08561 -0.0858335 -0.0856024 -0.0853465 -0.0865407 -0.0862049 -0.0853547 -0.0853283
internal_weight=127.64 38.7568 33.9843 30.3111 20.8523 7.79127 6.09223 13.061 9.45883 3.67322 4.41366 2.92376 1.69904 4.77249 88.8832 85.3386 16.49 7.09561 5.06336 4.21381 1.24355 3.54456 3.81648 2.03479 1.1719 9.39443 2.97026 2.08146 1.78168 8.74701
internal_count=3592 443 280 222 165 114 73 51 57 58 60 48 41 163 3149 3062 557 216 142 113 43 87 151 84 56 341 70 54 67 320
is_linear=0
shrinkage=0.1


Tree=9
num_leaves=31
num_cat=0
split_feature=1 4 7 7 0 4 2 0 9 7 7 7 3 10 7 7 3 7 7 6 10 0 7 10 7 7 0 4 0 0
split_gain=150.957 93.5703 30.4221 15.5821 9.33096 8.54065 9.90699 8.19615 3.00365 9.00531 2.46375 1.44034 0.564801 2.27817 4.85518 0.293798 0.198931 0.741146 5.46273 0.013012 0.000706884 0.000273198 0.000125645 0.000107418 3.98832e-05 5.56436e-05 2.98865e-05 3.15837e-05 4.58106e-06 3.7363e-06
threshold=1.0000000180025095e-35 0.15900000000000003 44.500000000000007 8.5000000000000018 11.023791790008547 0.13700000000000004 1.0000000180025095e-35 11.023791790008547 1.0000000180025095e-35 2.5000000000000004 12.500000000000002 15.500000000000002 1.1850000000000003 281.58978271484381 13.500000000000002 37.500000000000007 1.0500000000000003 31.500000000000004 28.500000000000004 13.500000000000002 13.000000000000002 9.8522000312805194 15.500000000000002 75.914794921875014 41.500000000000007 31.500000000000004 11.835000038146974 0.51150000000000018 13.20687246322632 15.635099887847902
decision_type=2 2 2 2 2 2 2 2 2 2 2 2 2 2 2 2 2 2 2 2 2 2 2 2 2 2 2 2 2 2
left_child=12 2 3 4 8 11 7 10 -2 -10 -7 -5 16 22 -15 -13 19 18 -18 -1 -3 -4 29 -22 25 -24 -25 -28 -23 -14
right_child=1 20 21 5 -6 6 -8 -9 9 -11 -12 15 13 14 -16 -17 17 -19 -20 -21 23 28 24 26 -26 -27 27 -29 -30 -31
leaf_value=-0.086291436545239145 -0.097239919821927423 -0.088193201772045884 -0.08629182459380251 0.23195707157049436 0.20889483177406679 0.37316819556069536 0.21320217496464916 0.2413481196140527 -0.086303076451283545 0.29603943427938989 0.50596514117739677 0.15256128078431225 -0.086440862723897782 0.17925641413178953 -0.087684924685456467 0.18592484308677779 -0.086291824593802552 -0.086291824593802538 0.13124455323398737 -0.095435472550833178 -0.084599995417499144 -0.087929093146841455 -0.087003040300544357 -0.086282236514730257 -0.086691076549569271 -0.08795593958941679 -0.087107155759243687 -0.086264909937341774 -0.088209910868705305 -0.086251733929870761
leaf_weight=69.281940963119268 2.0416289605200273 2.2519703172147301 1.3905911147594445 4.9284004122018805 3.5547019988298416 2.932482622563839 8.9397979080677032 3.4989289864897728 1.5549575239419939 1.0201747715473173 2.6682866588234901 6.2186478702351433 2.3471217788755876 1.1217541210353368 1.7354979552328584 4.5857272669672966 7.3502673208713514 23.361930727958679 1.3694466799497602 1.5919662415981282 0.36551736760884423 1.2158348858356478 1.5834839642047889 12.861384453251956 1.2907198907341806 0.99967326596379269 0.96412798762321361 0.82725496962666512 1.1124384691938756 1.8821694776415823
leaf_count=1744 18 39 35 24 19 17 39 30 39 13 28 39 57 19 32 18 185 588 24 12 32 21 35 326 32 17 20 21 21 48
internal_value=-0.0125713 0.111731 0.18672 0.211025 0.0871136 0.241006 0.287969 0.361422 -0.00665261 0.0651673 0.436435 0.187157 -0.081242 -0.0596612 0.017116 0.166722 -0.0835394 -0.077006 -0.0521273 -0.0864968 -0.086541 -0.0874009 -0.0867336 -0.0862933 -0.087145 -0.0873718 -0.0863355 -0.0867182 -0.0880633 -0.0863567
internal_weight=176.849 62.9329 45.6626 41.9437 8.17146 33.7723 18.0395 9.0997 4.61676 2.57513 5.60077 15.7328 113.916 10.9604 2.85725 10.8044 102.956 32.0816 8.71971 70.8739 17.2703 3.71886 8.10317 15.0183 3.87388 2.58316 14.6528 1.79138 2.32827 4.22929
internal_count=3592 799 361 284 89 195 114 75 70 52 45 81 2793 240 51 57 2553 797 209 1756 438 77 189 399 84 52 367 41 42 105
is_linear=0
shrinkage=0.1


Tree=10
num_leaves=31
num_cat=0
split_feature=3 7 6 7 7 7 4 7 0 10 10 6 6 7 0 1 4 0 10 7 2 4 7 10 4 0 4 0 7 10
split_gain=19.3615 34.168 23.9058 2.06692 8.67356 1.99387 1.84878 2.95036 0.225016 0.0188474 0.0176358 0.0164665 0.00182128 5.03672e-05 3.93871e-06 1.60084e-06 2.3503e-06 1.16115e-06 7.9258e-07 7.74013e-07 6.21169e-07 6.25492e-07 2.50572e-07 1.80374e-07 8.03761e-08 6.69429e-08 8.40341e-08 6.1787e-08 4.39527e-08 1.85844e-08
threshold=0.9900000000000001 37.500000000000007 13.500000000000002 39.500000000000007 38.500000000000007 40.500000000000007 0.33250000000000007 41.500000000000007 11.589474678039553 16.000000000000004 13.000000000000002 47.000000000000007 64.500000000000014 20.500000000000004 11.835000038146974 1.0000000180025095e-35 0.14850000000000002 14.025724887847902 225.79895019531253 7.5000000000000009 1.0000000180025095e-35 0.17650000000000002 15.500000000000002 152.94778442382815 0.20300000000000004 11.835000038146974 0.15650000000000003 16.98000001907349 17.500000000000004 146.46069335937503
decision_type=2 2 2 2 2 2 2 2 2 2 2 2 2 2 2 2 2 2 2 2 2 2 2 2 2 2 2 2 2 2
left_child=1 11 -3 4 10 -5 7 -7 -8 -9 12 14 13 -2 -1 17 19 25 22 -17 -11 -22 -19 -21 -18 -12 -27 29 -25 -26
right_child=3 2 -4 5 -6 6 8 9 -10 20 15 -13 -14 -15 -16 16 24 18 -20 23 21 -23 -24 28 27 26 -28 -29 -30 -31
leaf_value=-0.083811151351169177 -0.090713722942789787 -0.083810335828151672 0.60785214084541828 -0.17304039667500121 0.11666380170008005 0.10126696920060235 -0.14596767325194143 -0.093835890844747014 -0.21234098421067463 -0.083811318986363376 -0.083811546174472271 -0.099339288134113857 -0.097411481993568028 -0.092043951588879028 -0.084122113360855844 -0.083872010425081314 -0.083883845653772077 -0.083806728101204098 -0.084052378780493431 -0.083990560189743962 -0.084058914243099234 -0.083810335828151408 -0.08394421467976261 -0.084114519106762486 -0.083766887695873538 -0.083809188123295145 -0.08388760447285161 -0.083868780087355141 -0.084061234307658161 -0.083809807086278942
leaf_weight=1.8362685260362921 0.59569861460477402 0.7062509506940845 1.7086787391453979 3.3213855177164104 2.5216977000236502 0.91044912114739318 1.239305313676595 2.3924008409958324 0.86886996868997801 8.322994880843904 7.5955349355936015 0.97317472100257862 0.87626507878303517 0.54510392993688583 0.52343076746910799 0.26567312236875229 0.19908813247457136 0.34345270134508687 0.34581320825964212 0.22949483970296569 0.20828940114006478 0.19693536125123501 0.2158827893435955 0.39587718341499567 0.11516202590428271 0.277729071676731 0.26904961420223117 0.17813474262948148 0.25420741271227598 0.81400073412805796
leaf_count=270 24 104 27 35 25 17 53 42 5 1229 1116 6 6 18 48 36 26 51 36 30 21 29 27 36 20 41 35 34 25 120
internal_value=-0.0504174 0.119146 0.405574 -0.0795117 -0.0535935 -0.103318 -0.0869399 -0.0718032 -0.173323 -0.0859725 -0.0853582 -0.0883941 -0.0939829 -0.0913493 -0.0838801 -0.0838453 -0.083917 -0.0838259 -0.0839334 -0.0840216 -0.0838172 -0.0839381 -0.0838598 -0.0840668 -0.0838253 -0.083814 -0.0838478 -0.0838148 -0.0840937 -0.0838045
internal_weight=39.2463 5.7478 2.41493 33.4985 16.0379 17.4606 14.1392 12.0311 2.10818 11.1206 13.5162 3.33287 2.01707 1.1408 2.3597 11.4991 2.45164 9.04746 0.905149 1.14525 8.72822 0.405225 0.559335 0.879579 1.30639 8.14231 0.546779 1.1073 0.650085 0.929163
internal_count=3592 455 131 3137 1706 1431 1396 1338 58 1321 1681 324 48 42 318 1633 327 1306 114 127 1279 50 78 91 200 1192 76 174 61 140
is_linear=0
shrinkage=0.1


Tree=11
num_leaves=31
num_cat=0
split_feature=0 6 3 3 7 4 10 6 6 4 0 1 4 0 7 4 7 7 7 7 7 7 10 4 7 0 10 0 0 7
split_gain=68.6991 93.1612 22.0456 13.3383 37.2095 76.575 0.600753 0.000757149 8.39605e-05 5.29258e-05 2.28502e-06 4.83682e-07 7.24055e-07 5.29524e-07 3.21499e-07 2.82824e-07 2.06441e-07 1.82494e-07 2.43624e-07 1.38924e-07 1.21976e-07 3.07272e-07 2.32788e-08 2.00667e-08 1.80442e-08 7.79762e-09 4.12165e-09 1.48344e-09 1.38586e-09 4.83758e-10
threshold=16.98000001907349 30.000000000000004 1.6150000000000002 1.1600000000000001 39.500000000000007 0.25150000000000006 106.57318115234376 41.500000000000007 27.500000000000004 0.34950000000000003 11.835000038146974 1.0000000180025095e-35 0.14850000000000002 9.8522000312805194 27.500000000000004 0.13700000000000004 7.5000000000000009 38.500000000000007 44.500000000000007 14.500000000000002 8.5000000000000018 16.500000000000004 134.52993774414065 0.17150000000000001 17.500000000000004 12.20307493209839 146.46069335937503 13.20687246322632 28.003607749938968 40.500000000000007
decision_type=2 2 2 2 2 2 2 2 2 2 2 2 2 2 2 2 2 2 2 2 2 2 2 2 2 2 2 2 2 2
left_child=3 2 -2 7 9 8 -4 10 -6 14 11 -1 13 -13 20 27 -15 24 -19 28 25 22 -22 -14 -18 -5 -23 -12 -8 -25
right_child=1 -3 6 4 5 -7 19 -9 -10 -11 15 12 23 16 -16 -17 17 18 -20 -21 21 26 -24 29 -26 -27 -28 -29 -30 -31
leaf_value=-0.083671053127421957 -1.0562235755956322 -1.9908780586382464 0.087000191681340197 -0.083693924704095882 -0.083692324553858444 2.0682319221801251 -0.083684705122024416 -0.087152880957557355 -0.086577937300280905 -0.084901640929671104 -0.083823418960872559 -0.083670706760320235 -0.083713413745170384 -0.083707477949555922 -0.083890270252765242 -0.083953035182915886 -0.083883990721965007 -0.083654201272159515 -0.083864972944844782 -0.083790305260855596 -0.08386423486994303 -0.083666567813970735 -0.083805984141609002 -0.083670706760320249 -0.08384655299325855 -0.083659706244870902 -0.083692886199829952 -0.083812321441802298 -0.083670106551145026 -0.083665957419157611
leaf_weight=12.256010095123207 0.26250407472252735 0.43313357234001149 0.38381804898381233 0.20840296242386036 0.18804459320381273 0.27857368066906929 0.11014842707663774 0.65676975622773248 0.21741105616092682 0.69247354520484805 0.29295020643621761 0.35660759545862608 0.11389209050685156 0.14939607726410031 0.15432255156338215 0.22957776859402657 0.30404627183452249 0.10966376587748528 0.10969526600092649 0.17631199397146702 0.13609812967479229 0.12004092498682439 0.13834169087931514 1.2770407134667037 0.2232869672589004 0.097868801094591618 0.11799637321382761 0.20456502679735422 0.15874574426561594 0.25775534310378123
leaf_count=2541 6 9 8 41 39 14 22 18 6 36 42 74 21 29 20 27 39 28 15 28 23 26 22 265 31 21 23 30 33 55
internal_value=-0.104271 -0.749976 -0.257569 -0.0521566 0.170797 0.79177 -0.00468141 -0.0838256 -0.0852396 -0.0842334 -0.0836881 -0.0836797 -0.0837165 -0.0837738 -0.0837579 -0.0838612 -0.0838148 -0.0838363 -0.0837596 -0.0837213 -0.0837329 -0.0837628 -0.0838349 -0.0836729 -0.0838681 -0.083683 -0.0836796 -0.0838189 -0.0836761 -0.0836699
internal_weight=20.4155 1.52466 1.09153 18.8908 2.34957 0.684029 0.829024 16.5413 0.405456 1.66554 15.8845 15.1574 2.90138 1.2527 0.973071 0.727093 0.896088 0.746692 0.219359 0.445206 0.818749 0.512477 0.27444 1.64869 0.527333 0.306272 0.238037 0.497515 0.268894 1.5348
internal_count=3592 106 97 3486 271 59 91 3215 45 212 3197 3098 557 216 176 99 142 113 43 83 156 94 45 341 70 62 49 72 55 320
is_linear=0
shrinkage=0.1


Tree=12
num_leaves=31
num_cat=0
split_feature=0 1 4 3 9 0 3 9 4 4 0 10 10 4 7 0 10 7 0 3 10 0 7 7 7 4 10 6 7 7
split_gain=147.784 42.4906 39.0307 32.4529 23.6911 16.4733 8.09107 11.5996 6.87399 17.0313 5.2339 7.15899 4.20352 2.14209 2.0392 1.11421 3.27781 1.0794 1.03477 2.74615 0.21783 0.108758 0.491707 2.83589 0.0646626 0.147411 0.0388175 0.0283137 0.00723358 0.00119629
threshold=11.589474678039553 1.0000000180025095e-35 0.15900000000000003 1.1850000000000003 1.0000000180025095e-35 9.8522000312805194 1.0500000000000003 1.0000000180025095e-35 0.16700000000000004 0.15650000000000003 15.635099887847902 132.84048461914065 188.48071289062503 0.13700000000000004 9.5000000000000018 13.20687246322632 183.35394287109378 33.500000000000007 13.20687246322632 1.5650000000000002 191.82226562500003 11.023791790008547 31.500000000000004 28.500000000000004 40.500000000000007 0.44500000000000006 387.65185546875006 1.0000000180025095e-35 19.500000000000004 41.500000000000007
decision_type=2 2 2 2 2 2 2 2 2 2 2 2 2 2 2 2 2 2 2 2 2 2 2 2 2 2 2 2 2 2
left_child=1 21 5 13 8 -3 7 12 9 10 27 -12 -7 28 -14 -6 -17 -8 -10 -20 -21 -1 23 -23 -4 -26 -16 -5 -2 -30
right_child=3 2 24 4 15 6 17 -9 18 -11 11 -13 14 -15 26 16 -18 -19 19 20 -22 22 -24 -25 25 -27 -28 -29 29 -31
leaf_value=0.089489364568543631 -0.14162689591922253 0.089636311212520484 0.089480286693317299 0.090679132355440992 -0.153753573472583 -0.09454890335902652 -0.18230753258253959 -0.16880299330866 0.098630723842446033 -0.1633656681288943 -0.12897686220570728 0.090263400139474925 -0.034992058722391674 -0.19832982106203303 0.047064801975199078 -0.043817261229104731 -0.15185200430611448 -0.12341963416758384 -0.039054269227242019 0.053950143185155078 0.091346476768240523 0.089487507342398062 0.089474138631237751 -0.030788776604251545 0.089467056448422108 0.1259774831212038 0.061694743433884494 0.10353857967780758 -0.14452462316980638 -0.14630752374493483
leaf_weight=140.47335083037615 8.6797538995742816 5.785527564585208 20.570753410458568 4.3626882284879702 7.875319942831994 4.1346741691231754 7.0733667165040952 6.3956337571144095 5.4879044070839873 6.1538398265838614 3.3221480855718255 2.6997741535305977 3.8856220096349698 10.281813114881514 3.4561838060617447 4.9697446972131729 6.4574780166149139 5.5588218569755554 2.80749713629484 2.3884311821311712 4.4778384044766426 10.602612592279909 42.416996620595455 2.4049963355064383 3.1418200060725203 1.7065054923295973 3.8160281181335449 2.8182369321584702 9.6602739393711072 6.1652947068214408
leaf_count=1830 30 74 268 52 30 18 27 31 40 23 24 32 18 36 21 30 24 24 18 38 48 138 553 20 41 14 21 15 33 21
internal_value=0.0268638 0.0646928 -0.00501577 -0.0847445 -0.0360899 -0.0664593 -0.092773 -0.0557172 0.0135235 -0.0259711 0.0380684 -0.0306861 -0.00842251 -0.16002 0.0234927 -0.124813 -0.104867 -0.156394 0.0639456 0.0442688 0.0783382 0.0880093 0.0842582 0.0672494 0.0919289 0.102318 0.0547417 0.095726 -0.143947 -0.145219
internal_weight=350.031 261.423 65.5249 88.608 53.8209 40.1059 34.3203 21.6881 34.5184 19.3567 13.2028 6.02192 15.2925 34.7871 11.1578 19.3025 11.4272 12.6322 15.1617 9.67377 6.86627 195.898 55.4246 13.0076 25.4191 4.84833 7.27221 7.18093 24.5053 15.8256
internal_count=3592 3098 557 494 374 234 160 109 290 146 123 56 78 120 60 84 54 51 144 104 86 2541 711 158 323 55 42 67 84 54
is_linear=0
shrinkage=0.1


Tree=13
num_leaves=31
num_cat=0
split_feature=10 8 4 0 10 4 7 6 0 0 7 0 6 7 4 1 7 0 1 4 0 0 7 0 1 4 2 0 7 7
split_gain=22.0273 13.1839 9.44955 8.78362 6.97307 3.26795 2.97216 7.54411 2.19683 7.03581 0.169141 0.024848 0.00377648 0.000714129 0.000597628 0.00247278 0.000121565 3.70877e-05 1.58354e-05 2.55724e-05 1.93395e-05 1.38603e-05 8.88291e-06 6.25012e-06 5.10146e-06 7.05554e-06 3.47093e-06 2.06225e-06 2.88106e-06 1.97828e-06
threshold=171.48864746093753 1.0000000180025095e-35 0.11700000000000001 13.20687246322632 13.000000000000002 0.21950000000000003 21.500000000000004 13.500000000000002 14.674079895019533 20.020000457763675 35.500000000000007 18.012921333312992 13.500000000000002 18.500000000000004 0.11700000000000001 1.0000000180025095e-35 27.500000000000004 12.401374816894533 1.0000000180025095e-35 0.15900000000000003 9.8522000312805194 11.835000038146974 38.500000000000007 24.24532508850098 1.0000000180025095e-35 0.23800000000000002 1.0000000180025095e-35 11.835000038146974 31.500000000000004 41.500000000000007
decision_type=2 2 2 2 2 2 2 2 2 2 2 2 2 2 2 2 2 2 2 2 2 2 2 2 2 2 2 2 2 2
left_child=1 2 4 12 29 10 -6 11 14 -10 -5 -8 24 -14 15 17 -15 -2 21 20 -20 -16 -22 -11 27 -26 -24 -4 -29 -1
right_child=8 -3 3 5 6 -7 7 -9 9 23 -12 -13 13 16 18 -17 -18 -19 19 -21 22 -23 26 -25 25 -27 -28 28 -30 -31
leaf_value=-0.084779183864062593 -0.084286473945207566 0.34427307003308638 -0.084283950939734661 0.12698182583481982 0.22250728423126481 -0.0094531255971252118 -0.084298291801777281 0.22345560971523715 0.38403320569911847 -0.084926481049729496 0.088838296851551243 -0.11250329184408232 -0.090913508778023081 -0.086551084843698223 -0.084287505228103785 -0.08975623206178647 -0.088395588687242344 -0.085132256358883926 -0.084282852578552669 -0.084299143472253923 -0.084948302467066639 -0.08480096297767456 -0.084275436861849906 -0.084476989253875409 -0.084831188940140759 -0.084266590487592719 -0.084733725119717898 -0.084295653733738596 -0.084651043912163215 -0.085036824833024827
leaf_weight=1.0213389694690764 3.7281983410939565 1.326893183402716 5.1116906432434934 2.6283906139433366 3.3971865847706795 4.43923120200634 0.56973480619490147 1.6896519362926483 0.42511796951293845 0.50805784296244361 2.0845187455415726 0.69139547646045685 1.0282241944223645 0.72669556271284796 24.723988034762446 1.0781625658273695 0.70295373536646366 0.60220175608992565 0.90892046689987127 4.1054740487597883 1.6830463167279961 0.53715289290994306 0.31472961883991946 0.79092342406511307 0.47044939547777165 0.41798936948180199 0.34798063896596432 0.54122430644929398 0.3942880230024457 0.42082617804408062
leaf_count=51 278 9 382 26 36 24 42 24 11 24 23 3 18 24 1842 14 21 28 68 305 78 28 26 51 26 32 18 40 22 18
internal_value=-0.0318102 0.0367133 0.0212173 -0.0176052 0.113641 0.0521166 0.158736 0.0853165 -0.0794922 0.030913 0.110111 -0.0997613 -0.0855354 -0.0889036 -0.0844974 -0.085471 -0.087458 -0.0844041 -0.084336 -0.0844651 -0.0846745 -0.0842984 -0.0848262 -0.0846528 -0.0843418 -0.0845656 -0.0845161 -0.0843089 -0.0844454 -0.0848544
internal_weight=67.4166 27.6627 26.3358 18.5457 7.79013 9.15214 6.34797 2.95078 39.754 1.7241 4.71291 1.26113 9.39352 2.45787 38.0299 5.40856 1.42965 4.3304 32.6213 7.36015 3.25468 25.2611 2.34576 1.29898 6.93564 0.888439 0.66271 6.0472 0.935512 1.44217
internal_count=3592 821 812 638 174 73 105 69 2771 86 49 45 565 63 2685 320 45 306 2365 495 190 1870 122 75 502 58 44 444 62 69
is_linear=0
shrinkage=0.1


Tree=14
num_leaves=31
num_cat=0
split_feature=3 0 7 9 7 7 7 4 7 7 9 7 7 0 1 4 0 4 7 7 2 7 1 7 7 0 7 10 0 7
split_gain=91.2317 17.1287 9.30225 5.02087 9.43657 3.87479 3.83185 1.82472 0.834006 0.0795743 0.00133761 0.000610485 1.61241 0.000535747 0.000145102 0.000201721 0.000126589 8.52791e-05 3.95359e-05 5.61092e-05 4.8789e-05 2.15656e-05 1.67662e-05 7.88914e-06 7.35183e-06 2.07594e-06 1.01941e-06 2.91779e-07 2.56883e-07 1.24654e-06
threshold=1.1200000000000003 14.674079895019533 50.500000000000007 1.0000000180025095e-35 32.500000000000007 10.500000000000002 53.500000000000007 0.15650000000000003 20.500000000000004 84.500000000000014 1.0000000180025095e-35 9.5000000000000018 7.5000000000000009 11.835000038146974 1.0000000180025095e-35 0.15900000000000003 9.8522000312805194 0.13700000000000004 7.5000000000000009 38.500000000000007 1.0000000180025095e-35 13.500000000000002 1.0000000180025095e-35 16.500000000000004 12.500000000000002 11.023791790008547 19.500000000000004 191.82226562500003 11.023791790008547 31.500000000000004
decision_type=2 2 2 2 2 2 2 2 2 2 2 2 2 2 2 2 2 2 2 2 2 2 2 2 2 2 2 2 2 2
left_child=13 2 3 4 5 7 -4 11 -5 -8 21 12 -2 14 28 16 -16 26 -18 24 -21 27 23 -23 -20 -26 -15 -3 -1 -30
right_child=1 10 6 8 -6 -7 9 -9 -10 -11 -12 -13 -14 17 15 -17 18 -19 19 20 -22 22 -24 -25 25 -27 -28 -29 29 -31
leaf_value=-0.085026201757701259 0.094622404555881029 -0.085006752540158395 0.11447904563440243 0.21375696708102965 0.1842897922112591 -0.094671146443385853 -0.086431762122328684 0.13340768412279408 0.16523858744374587 -0.12389908286910836 -0.089616169150485619 0.022150318973705299 -0.085023344811753249 -0.085849425711551519 -0.085023694534599098 -0.085022667536570659 -0.085352721782473592 -0.086955457000499378 -0.08653723185636486 -0.084941643451574025 -0.086131229830901879 -0.08599136044924835 -0.085089631728998777 -0.085514601883562219 -0.086117256486173646 -0.086329327158682315 -0.086000603191328601 -0.085097128809070832 -0.085094469655458305 -0.085026408015746555
leaf_weight=42.851539596915245 1.2831084579229375 0.63038948562461816 1.1968056075274938 5.2613606080412891 7.3197561781853429 1.9522597333416341 1.0583466049283745 2.4788324497640133 10.847007393836973 1.2206017784774301 0.93878155946731556 1.7692826986312868 0.81822324730455864 0.7137055099010462 1.7303051613271216 7.5316396290436387 0.78457072004675854 1.4828150086104868 1.3010310381650927 0.63001123443245866 0.76149414852261543 0.68875877372920491 0.52924495097249735 0.69965615426190197 0.89243900030851342 0.9561053104698658 1.1893431991338728 0.82439052127301693 3.4304399900138369 12.482361821457742
leaf_count=1830 16 30 9 24 38 39 33 25 39 16 12 6 35 21 74 323 29 33 31 31 21 21 39 27 24 24 33 34 142 533
internal_value=-0.0215868 0.10186 0.1249 0.141912 0.101518 0.028537 -0.0304098 0.0664197 0.181086 -0.106499 -0.0862776 0.023519 0.0246714 -0.0851571 -0.0851003 -0.0853826 -0.0857668 -0.0863869 -0.0860082 -0.0861215 -0.0855926 -0.0853483 -0.0855686 -0.0857511 -0.0863551 -0.0862269 -0.0859439 -0.085058 -0.0850302 -0.0850411
internal_weight=116.255 39.5168 35.2056 31.7298 15.6215 8.30171 3.47575 6.34945 16.1084 2.27895 4.31122 3.87061 2.10133 76.7378 73.3519 14.5876 7.05596 3.38586 5.32565 4.54108 1.39151 3.37244 1.91766 1.38841 3.14958 1.84854 1.90305 1.45478 58.7643 15.9128
internal_count=3592 443 280 222 159 121 58 82 63 49 163 57 51 3149 3062 557 234 87 160 131 52 151 87 48 79 48 54 64 2505 675
is_linear=0
shrinkage=0.1


Tree=15
num_leaves=31
num_cat=0
split_feature=1 4 7 7 9 0 7 7 10 7 4 3 10 0 7 10 10 0 10 10 7 10 7 10 0 10 10 4 0 10
split_gain=115.471 60.903 19.0698 9.31188 6.64385 11.3437 4.5111 3.377 2.65074 2.00805 1.06536 0.583617 2.11916 5.08127 0.465921 0.226865 6.59509 0.0132912 0.00084892 0.000279729 9.42542e-05 7.04174e-05 6.63212e-05 3.39918e-05 8.80363e-05 3.11354e-05 2.78587e-05 7.94697e-05 9.4571e-05 2.19671e-05
threshold=1.0000000180025095e-35 0.15900000000000003 44.500000000000007 6.5000000000000009 1.0000000180025095e-35 11.023791790008547 35.500000000000007 4.5000000000000009 344.08851623535162 14.500000000000002 0.13700000000000004 1.1850000000000003 281.58978271484381 12.20307493209839 12.500000000000002 477.06442260742193 493.91175842285162 11.835000038146974 13.000000000000002 740.87994384765636 15.500000000000002 75.914794921875014 41.500000000000007 431.66297912597662 11.023791790008547 146.46069335937503 577.90979003906261 0.17650000000000002 11.023791790008547 370.97396850585943
decision_type=2 2 2 2 2 2 2 2 2 2 2 2 2 2 2 2 2 2 2 2 2 2 2 2 2 2 2 2 2 2
left_child=11 2 3 7 5 8 9 29 -5 -7 -11 15 20 -14 -6 17 -17 23 -3 -4 -13 -20 25 -1 -25 -22 27 -18 -29 -2
right_child=1 18 19 4 14 6 -8 -9 -10 10 -12 12 13 -15 -16 16 26 -19 21 -21 22 -23 -24 24 -26 -27 -28 28 -30 -31
leaf_value=-0.085838710750909694 -0.085937162901665809 -0.087995816187995027 -0.087742206778158721 -0.014958391302772565 0.21840561754561452 0.25930412963852528 0.10099045652490508 0.14051590387008259 0.095976622382896892 0.14960274659409592 0.20805715872865516 -0.086026215040426499 0.18466261271032886 -0.087885847564579789 0.25937856789506658 0.14502640560621213 -0.085831243507357713 -0.095197057641494776 -0.08439090151126262 -0.085831364301488258 -0.087392854492785832 -0.085867835930825281 -0.08610290416672628 -0.085831365034777896 -0.086804044451340476 -0.086665570363248484 -0.085834227932991169 -0.085864888802419007 -0.086945028325944432 -0.086626988309684946
leaf_weight=54.519571863114834 1.2658286243677133 2.1059289313852778 2.1612494528526431 3.4266881234943849 5.7055787146091443 5.3804109580814901 5.0197772718965998 0.98037727177143086 5.7990076169371605 4.860368054592981 8.6969746202230436 3.7757480554282647 1.0965648852288725 1.8183417469263075 5.4040093868970871 1.2966809310019041 5.9336857981979865 1.5651544779539097 0.33136462396941979 1.1867903731763365 1.2380986027419574 12.51585231348872 1.0863935439847408 3.0517480149865142 1.3386967107653616 1.1221369877457616 17.5118762627244 1.507294625043869 1.7536556348204613 0.72661566361784924
leaf_count=1606 36 39 42 27 21 30 33 5 33 27 33 105 16 35 22 35 175 12 32 35 25 367 32 90 33 27 516 44 42 17
internal_value=-0.0116701 0.09118 0.143565 0.159902 0.171401 0.148991 0.185274 -0.0114261 0.0547722 0.207615 0.187101 -0.0800522 -0.0573249 0.0146447 0.238336 -0.0826562 -0.0752149 -0.0861019 -0.0861348 -0.0870649 -0.0863714 -0.0858297 -0.0867495 -0.0858603 -0.0861279 -0.0870471 -0.0859082 -0.0860492 -0.0864458 -0.0861887
internal_weight=164.182 65.5668 50.6137 47.2656 44.2928 33.1832 23.9575 2.97282 9.2257 18.9378 13.5573 98.6156 10.1373 2.91491 11.1096 88.4784 28.0032 60.4752 14.9531 3.34804 7.22238 12.8472 3.44663 58.91 4.39044 2.36024 26.7065 9.19464 3.26095 1.99244
internal_count=3592 799 361 284 226 183 123 58 60 90 60 2793 240 51 43 2553 812 1741 438 77 189 399 84 1729 123 52 777 261 86 53
is_linear=0
shrinkage=0.1


Tree=16
num_leaves=31
num_cat=0
split_feature=3 7 7 0 0 1 2 1 0 7 7 7 6 4 6 10 10 10 10 4 4 4 4 7 7 10 4 10 7 7
split_gain=14.8109 16.9252 8.28133 1.88649 3.71866 4.91508 2.44732 1.23559 0.579206 0.528123 0.240216 0.117351 0.0257825 0.0224115 0.0114317 0.00541276 0.000487663 5.11444e-06 4.65233e-06 1.92475e-06 1.50906e-06 1.38612e-06 9.62708e-07 6.94091e-07 2.89424e-07 2.33503e-07 3.51674e-07 1.92776e-07 1.73005e-07 1.06727e-07
threshold=0.9900000000000001 37.500000000000007 41.500000000000007 11.023791790008547 11.274474620819094 1.0000000180025095e-35 1.0000000180025095e-35 1.0000000180025095e-35 11.835000038146974 39.500000000000007 40.500000000000007 41.500000000000007 17.500000000000004 0.27200000000000008 47.000000000000007 13.000000000000002 55.407501220703132 138.07458496093753 351.69062805175787 0.17650000000000002 0.18650000000000003 0.13700000000000004 0.12000000000000001 8.5000000000000018 10.500000000000002 208.6244812011719 0.24850000000000003 225.79895019531253 12.500000000000002 24.500000000000004
decision_type=2 2 2 2 2 2 2 2 2 2 2 2 2 2 2 2 2 2 2 2 2 2 2 2 2 2 2 2 2 2
left_child=1 14 -3 7 5 -5 -7 16 -6 20 -11 -12 15 -14 17 -10 -2 21 -4 -8 23 -1 24 -9 -17 29 -27 -26 -25 -24
right_child=3 2 18 4 8 6 19 9 12 10 11 -13 13 -15 -16 22 -18 -19 -20 -21 -22 -23 25 28 27 26 -28 -29 -30 -31
leaf_value=-0.083968129023682059 -0.087169641239715379 0.31012052927822642 -0.084387508909015085 -0.083744015972537278 -0.17133627710344254 0.11532582426180903 -0.084054660525597069 -0.0838369436858378 -0.091692700467873478 -0.18284732880600588 -0.14933380446408798 -0.083803899357543621 -0.091772627660368228 -0.10999442128788287 -0.097389787392351268 -0.083844065630182818 -0.083738990566539745 -0.083739443342412942 -0.083738918611547641 -0.083738556613305246 -0.083738915674318445 -0.084306052668118636 -0.083744720477032047 -0.0841197536198285 -0.083940706455657932 -0.083920468764961773 -0.083766600290380216 -0.084072044143664926 -0.083994393616381419 -0.083822484638686287
leaf_weight=0.29700185637921084 0.43334217416122811 2.8632089956663553 0.14085458312183607 3.9421752146445197 1.0948644615709779 3.0649778321385388 0.40202127117663611 0.21437322162091621 1.4941806457936766 2.3805640339851384 0.88787537813186623 0.39479158911854029 1.50650218926603 1.222877205815166 0.88920146226882923 0.20211184490472112 9.4538973555900139 1.5633321516215799 0.51477158954367042 0.36982482858002186 0.40487069915980101 0.20528327487409115 0.5935590216249691 0.21765278466045856 0.32323918170004617 0.32212182879447937 0.27564860181882977 0.17081485083326697 0.22276023961603642 0.2511712868581526
leaf_count=33 36 30 12 675 39 21 40 31 30 8 3 61 39 12 6 29 1635 270 89 64 70 15 105 20 48 39 45 18 24 45
internal_value=-0.048574 0.088542 0.236711 -0.0783145 -0.0536953 -0.00532496 0.0752473 -0.103988 -0.104154 -0.146065 -0.16405 -0.129164 -0.0925925 -0.0999368 -0.0879096 -0.0870747 -0.0838894 -0.0838286 -0.0838783 -0.0839032 -0.0838907 -0.0841062 -0.0838483 -0.0839845 -0.0839449 -0.0838017 -0.0838495 -0.0839861 -0.0840563 -0.0837678
internal_weight=36.3199 6.47365 3.51884 29.8462 15.2361 7.779 3.83682 14.6101 7.45709 4.72289 3.66323 1.28267 6.36223 2.72938 2.95482 3.63285 9.88724 2.06562 0.655626 0.771846 1.05966 0.502285 2.13867 0.654786 0.696166 1.4425 0.59777 0.494054 0.440413 0.84473
internal_count=3592 455 131 3137 1249 800 125 1888 449 217 72 64 410 51 324 359 1671 318 101 104 145 48 329 75 95 234 84 66 44 150
is_linear=0
shrinkage=0.1


Tree=17
num_leaves=31
num_cat=0
split_feature=3 7 7 0 7 10 4 6 6 6 6 4 10 0 1 4 0 4 7 7 7 7 2 7 7 7 0 10 7 0
split_gain=5.34913 12.2529 22.8166 2.93186 1.7453 1.35232 0.196435 0.0474813 0.0149701 0.000613274 0.000371467 2.48751e-05 8.22627e-06 2.98135e-06 7.08382e-07 9.7711e-07 6.09141e-07 5.43832e-07 1.98831e-07 1.93149e-07 1.89211e-07 2.66535e-07 2.34848e-07 8.52881e-08 3.45648e-08 2.78673e-08 9.75576e-09 7.96767e-09 1.49661e-09 1.39937e-09
threshold=1.1600000000000001 35.500000000000007 41.500000000000007 16.98000001907349 8.5000000000000018 48.320007324218757 0.11350000000000002 30.000000000000004 47.000000000000007 41.500000000000007 1.0000000180025095e-35 0.39100000000000007 345.21411132812506 11.835000038146974 1.0000000180025095e-35 0.15900000000000003 9.8522000312805194 0.13700000000000004 13.500000000000002 27.500000000000004 7.5000000000000009 38.500000000000007 1.0000000180025095e-35 16.500000000000004 12.500000000000002 21.500000000000004 11.023791790008547 191.82226562500003 6.5000000000000009 11.023791790008547
decision_type=2 2 2 2 2 2 2 2 2 2 2 2 2 2 2 2 2 2 2 2 2 2 2 2 2 2 2 2 2 2
left_child=9 4 -3 8 5 -2 -6 11 10 13 -4 18 27 14 29 16 -16 -15 -8 23 -18 24 -23 -20 -22 -25 -26 28 -7 -1
right_child=1 2 3 -5 6 12 7 -9 -10 -11 -12 -13 -14 17 15 -17 20 -19 19 -21 21 22 -24 25 26 -27 -28 -29 -30 -31
leaf_value=-0.083620263993954391 0.1104991200999441 0.59284888459086182 -0.09061621019121921 0.11080448689960494 -0.15443183485838644 -0.083635444990738481 -0.083858691117508516 -0.11010632979418954 -0.11038166394582219 -0.086871710465697596 -0.085516864718520352 -0.084784681410526974 -0.084323476007147957 -0.083781918839528943 -0.083619845103621998 -0.083619667659499519 -0.083674579794363615 -0.083968941605392936 -0.083756721443640367 -0.083841001893564332 -0.083869011011070679 -0.083606182256139083 -0.083802873160095159 -0.083631791395970267 -0.083800683500603268 -0.083698835551665796 -0.083835195577646446 -0.083657761852050233 -0.083620006890677182 -0.08362283804071613
leaf_weight=7.5092696209903789 0.73168434156104722 0.90431203041225705 0.33829932520166062 1.3917328021489082 0.89435112476348866 0.1034034127369523 0.16531293606385611 2.0750578050501645 0.66599021852016449 0.61480503994971591 0.24726744380313903 0.36069953674450517 0.32279108930379152 0.45961039513349611 0.3032094053924077 1.3197887851856647 0.13795138662680984 0.23496701940894127 0.16026024497114122 0.12696513393893838 0.23157527716830373 0.11031546932645142 0.13498157495632768 0.13236141880042851 0.15821310272440314 0.11662251595407724 0.16982429567724466 0.11353644216433167 0.15989330504089594 2.9385064318776131
leaf_count=1830 6 16 26 9 3 24 25 21 3 18 21 22 34 72 74 323 29 27 30 18 31 31 21 32 24 23 24 25 39 711
internal_value=-0.0458059 0.0145602 0.159267 0.0109319 -0.0794118 0.0154509 -0.11309 -0.101304 -0.100127 -0.0837819 -0.0884629 -0.0841098 -0.083953 -0.0836433 -0.0836326 -0.0836796 -0.0837431 -0.0838452 -0.0837628 -0.0837332 -0.0837828 -0.0838013 -0.0837144 -0.0836998 -0.0838394 -0.0836632 -0.0838186 -0.0836356 -0.0836261 -0.083621
internal_weight=23.3336 9.01054 3.5476 2.64329 5.46294 1.43131 4.03163 3.13728 1.25156 14.323 0.585567 1.06222 0.699624 13.7082 13.0136 2.56586 1.24607 0.694577 0.701522 0.536209 0.942861 0.80491 0.245297 0.409244 0.559613 0.248984 0.328037 0.376833 0.263297 10.4478
internal_count=3592 377 75 59 302 128 174 171 50 3215 47 150 122 3197 3098 557 234 99 128 103 160 131 52 85 79 55 48 88 63 2541
is_linear=0
shrinkage=0.1


Tree=18
num_leaves=31
num_cat=0
split_feature=0 1 4 3 9 0 3 9 10 4 4 0 4 7 0 3 0 10 4 10 10 0 7 7 7 4 4 9 7 10
split_gain=116.082 37.6334 30.8274 23.7602 18.4297 12.0972 6.12767 7.84108 5.7327 5.67783 12.3811 4.31243 5.9262 1.75218 1.00476 2.3542 0.950153 3.20582 0.861125 0.554774 0.222734 0.124387 0.550379 2.82085 0.0394006 0.0704309 0.016631 0.013428 0.00421688 0.0019165
threshold=11.589474678039553 1.0000000180025095e-35 0.15900000000000003 1.1850000000000003 1.0000000180025095e-35 9.8522000312805194 1.0500000000000003 1.0000000180025095e-35 183.35394287109378 0.16700000000000004 0.15650000000000003 15.635099887847902 0.14750000000000002 9.5000000000000018 13.20687246322632 1.5650000000000002 13.20687246322632 167.89019775390628 0.13700000000000004 355.56523132324224 191.82226562500003 11.023791790008547 31.500000000000004 28.500000000000004 40.500000000000007 0.33800000000000008 0.095500000000000015 1.0000000180025095e-35 37.500000000000007 387.65185546875006
decision_type=2 2 2 2 2 2 2 2 2 2 2 2 2 2 2 2 2 2 2 2 2 2 2 2 2 2 2 2 2 2
left_child=1 21 5 18 9 -3 7 8 -7 10 11 26 -13 -10 -11 -16 -6 -18 27 -8 -17 -1 23 -23 -4 -26 -5 28 -2 -15
right_child=3 2 24 4 16 6 19 -9 13 14 -12 12 -14 29 15 20 17 -19 -20 -21 -22 22 -24 -25 25 -27 -28 -29 -30 -31
leaf_value=0.088512952600477979 -0.12956382563693547 0.088625634021168617 0.088498348033489757 0.099306652806830542 -0.14042466370561227 -0.11777157620287322 -0.10902388183245869 -0.13544011457034727 -0.027225361557610114 0.096861072902495793 -0.13466565612431677 -0.11196810595695582 0.093770009742050478 0.052700738239540981 -0.034372892915523631 0.050367820681035361 -0.022190997950345126 -0.13554679342282852 -0.16384017252913552 -0.15228676499105379 0.090236508899040613 0.088513119274832061 0.088499256632882106 -0.034547937831443117 0.088486144548475476 0.11469184323084299 0.089025367942610067 -0.12576251461374008 -0.13287767090275346 0.055843293579914369
leaf_weight=120.79193811863661 9.044556677341463 4.9689115658402434 17.670219652354721 2.9615745246410388 7.3324042260646829 3.5921019986271885 4.9674899876117689 6.9083119034767142 4.0026394575834257 5.078181840479373 6.4663856476545325 3.3440375858917832 2.4083865433931351 4.0694946348667145 2.8229832351207715 2.1760356482118368 3.954590767621994 6.7591155767440796 10.558128029108046 7.3492788076400757 3.9356773421168327 9.1187795251607877 36.467614844441414 2.340843401849269 2.5007901713252059 1.7385861016809938 3.356470949947834 7.2261312603950492 6.6730788946151725 3.709661453962326
leaf_count=1830 33 74 268 19 30 15 21 31 18 40 23 32 24 24 18 38 27 27 36 30 48 138 553 20 38 17 48 27 24 21
internal_value=0.0256627 0.0623957 -0.00458682 -0.0748848 -0.0316325 -0.0572802 -0.0782344 -0.0469459 -0.00718073 0.0133062 -0.0230069 0.0368108 -0.025831 0.0265369 0.0613427 0.0411553 -0.112688 -0.0937055 -0.140206 -0.134838 0.0760415 0.0868026 0.0824921 0.0633756 0.0905755 0.0992332 0.0938447 -0.12933 -0.130971 0.0541993
internal_weight=314.294 230.197 61.4775 84.0977 50.5958 39.5679 34.599 22.2822 15.3739 32.5497 18.5369 12.0705 5.75242 11.7818 14.0129 8.9347 18.0461 10.7137 33.5019 12.3168 6.11171 168.719 47.9272 11.4596 21.9096 4.23938 6.31805 22.9438 15.7176 7.77916
internal_count=3592 3098 557 494 374 234 160 109 78 290 146 123 56 63 144 104 84 54 120 51 86 2541 711 158 323 55 67 84 57 45
is_linear=0
shrinkage=0.1


Tree=19
num_leaves=31
num_cat=0
split_feature=10 8 4 3 10 9 0 0 0 0 5 10 7 6 0 0 4 1 7 6 0 0 1 4 0 0 7 1 0 2
split_gain=18.9707 7.24825 7.29102 7.73794 5.13998 3.20089 3.48132 2.16547 5.61107 1.89534 1.209 0.933758 1.56273 0.188359 0.00750681 0.00204332 0.000721498 0.0025415 0.000203807 5.06759e-05 3.53445e-05 2.3845e-05 1.59599e-05 2.60024e-05 1.82087e-05 1.24319e-05 7.95935e-06 7.31646e-06 3.08336e-06 2.20242e-06
threshold=171.48864746093753 1.0000000180025095e-35 0.11700000000000001 1.7150000000000001 13.000000000000002 1.0000000180025095e-35 13.20687246322632 14.674079895019533 18.012921333312992 16.98000001907349 1.0000000180025095e-35 152.94778442382815 42.500000000000007 17.500000000000004 16.98000001907349 14.00292491912842 0.11700000000000001 1.0000000180025095e-35 18.500000000000004 13.500000000000002 12.401374816894533 24.24532508850098 1.0000000180025095e-35 0.15900000000000003 9.8522000312805194 11.835000038146974 38.500000000000007 1.0000000180025095e-35 11.023791790008547 1.0000000180025095e-35
decision_type=2 2 2 2 2 2 2 2 2 2 2 2 2 2 2 2 2 2 2 2 2 2 2 2 2 2 2 2 2 2
left_child=1 2 4 5 -1 10 18 16 -9 11 13 12 -6 14 15 19 17 20 -7 27 -2 -10 25 24 -24 -18 -26 -4 -29 -28
right_child=7 -3 3 -5 9 6 -8 8 21 -11 -12 -13 -14 -15 -16 -17 22 -19 -20 -21 -22 -23 23 -25 26 -27 29 28 -30 -31
leaf_value=-0.084661698303908961 -0.084143301526516792 0.23558579202824459 -0.084166497595906012 0.11870303257470521 0.091113327722272042 -0.090144527183634096 0.10485787700816616 0.31376349804009973 -0.085201233381377126 0.035465158843869631 0.021261828843648873 0.22244067401006282 0.24511259917006012 -0.12730253391109844 -0.098164590553868933 -0.088997459371365481 -0.084144711920405291 -0.089733293492246541 -0.087805992287572604 -0.085295270437109438 -0.085016833959744423 -0.08431058308872931 -0.084138981323072973 -0.08415136880968116 -0.084822729312879763 -0.084655863279500865 -0.084193520983420353 -0.08431923827446533 -0.084779890267526636 -0.084578304530556064
leaf_weight=1.2660705875605405 3.1767438044771548 1.6650803312659253 4.996056473813951 3.403501132503151 2.43179595284164 0.62594892550259762 2.3238071948289871 0.49769273772835632 0.53854786418378331 1.4758389741182325 1.0589411091059453 1.7858886150643227 0.90385906677693117 1.2781984135508535 0.46173146367073048 1.0876160543411968 21.07538323383779 1.1046904921531675 0.92104196734726429 0.46213437058031548 0.54226018674671639 0.68032801523804665 0.77384452242404167 3.4909468586556613 1.5648078825324776 0.48680767137557168 0.28655102290213097 0.30163970682770003 0.28035598061978817 0.30933289602398872
leaf_count=69 278 9 429 17 39 18 12 9 26 6 21 30 30 15 3 32 1842 14 32 18 28 51 68 305 78 28 26 23 18 18
internal_value=-0.0297006 0.0335481 0.0201264 -0.0163402 0.0998955 -0.0496521 0.0274803 -0.0786641 0.0308255 0.135313 -0.0797291 0.164085 0.132842 -0.0917889 -0.0858079 -0.0850074 -0.0843922 -0.0855217 -0.0887522 -0.084289 -0.0842707 -0.0847041 -0.0841975 -0.0843358 -0.0845552 -0.0841563 -0.0847043 -0.0842056 -0.0845411 -0.0843933
internal_weight=61.2574 26.7295 25.0644 17.201 7.86345 13.7975 3.8708 34.5279 1.71657 6.59738 9.92667 5.12154 3.33566 8.86773 7.58953 7.1278 32.8114 4.82369 1.54699 6.04019 3.719 1.21888 27.9877 6.42548 2.93454 21.5622 2.16069 5.57805 0.581996 0.595884
internal_count=3592 821 812 638 174 621 62 2771 86 105 559 99 69 538 523 520 2685 320 50 488 306 77 2365 495 190 1870 122 470 41 44
is_linear=0
shrinkage=0.1


Tree=20
num_leaves=31
num_cat=0
split_feature=3 0 7 9 7 7 7 7 7 3 0 9 0 1 4 0 4 10 7 2 7 7 7 10 10 7 10 7 0 7
split_gain=73.3029 13.0387 7.07219 4.43275 7.10987 3.28207 3.19686 1.04344 0.52286 0.139693 0.0279495 0.0012062 0.000487976 0.000164782 0.000216142 0.000127521 9.78884e-05 3.48253e-05 2.41195e-05 4.36201e-05 3.79888e-05 2.22557e-05 1.40676e-05 8.70295e-06 6.40884e-06 5.97297e-06 1.24384e-06 1.21895e-06 4.8304e-07 2.33503e-06
threshold=1.1200000000000003 14.674079895019533 50.500000000000007 1.0000000180025095e-35 32.500000000000007 10.500000000000002 53.500000000000007 7.5000000000000009 20.500000000000004 1.1450000000000002 12.401374816894533 1.0000000180025095e-35 11.835000038146974 1.0000000180025095e-35 0.15900000000000003 9.8522000312805194 0.13700000000000004 132.84048461914065 38.500000000000007 1.0000000180025095e-35 7.5000000000000009 62.500000000000007 16.500000000000004 261.56518554687506 477.06442260742193 12.500000000000002 355.56523132324224 19.500000000000004 11.023791790008547 31.500000000000004
decision_type=2 2 2 2 2 2 2 2 2 2 2 2 2 2 2 2 2 2 2 2 2 2 2 2 2 2 2 2 2 2
left_child=12 2 3 4 5 7 -4 -2 -5 -8 -9 17 13 28 15 -15 27 22 20 -20 -17 -11 -3 -19 -25 -22 -27 -14 -1 -30
right_child=1 11 6 8 -6 -7 9 10 -10 21 -12 -13 16 14 -16 18 -18 23 19 -21 25 -23 -24 24 -26 26 -28 -29 29 -31
leaf_value=-0.084766398687219496 0.10492796222226289 -0.086352635251403076 0.095976997952100934 0.18568642842136077 0.15528268062508421 -0.096100114088123564 -0.13847881283914568 0.030588652581023446 0.1469670315628098 -0.086231054635302687 0.013765844976287123 -0.089314000438643085 -0.085516085082172025 -0.084764552288349601 -0.084762142257115924 -0.085333835050081533 -0.086757091968931666 -0.084802174871725269 -0.084803391750372839 -0.08597885695230853 -0.086287629613918809 -0.085366063117148533 -0.085322720623696974 -0.085451062909094877 -0.084962073537479421 -0.086087185361279059 -0.085916722928039257 -0.085692252655029028 -0.084866795825509614 -0.084766562798534797
leaf_weight=36.497812528163195 2.5394014716148359 0.28033484268235032 1.2277010176330798 5.2394894175231466 7.5609444808214912 1.8491044873371718 0.86270928382873568 2.1550236828625202 10.430694401264189 0.53776686266064622 1.8230397775769236 0.89968881011009205 0.62464009970426504 1.4740196131169776 6.4106685612350702 0.78390104137361083 1.4070521704852579 1.3447477631270888 0.57572755776345708 0.69896423071622849 1.2116619255393746 0.6656267773360014 0.25169847207143903 0.48921809904277302 0.59281374700367451 0.81493631750345208 0.90169943682849407 1.058067664504051 2.9744442477822295 10.631477050483225
leaf_count=1830 35 15 9 24 38 39 3 39 39 19 8 12 21 74 323 29 33 66 31 21 31 27 26 17 27 22 26 33 142 533
internal_value=-0.0208676 0.0883264 0.107616 0.122152 0.0850009 0.0214867 -0.0318264 0.0548479 0.159913 -0.107769 0.0228792 -0.0861076 -0.0849146 -0.0848544 -0.0851735 -0.0855817 -0.0861416 -0.0851327 -0.0858232 -0.0854479 -0.0859521 -0.0857526 -0.0858654 -0.084972 -0.0851832 -0.0861176 -0.0859976 -0.0856269 -0.0847724 -0.0847885
internal_weight=104.815 38.75 34.8915 31.5977 15.9275 8.36657 3.2938 6.51746 15.6702 2.0661 3.97806 3.8585 66.0651 62.9753 12.8716 6.46091 3.08976 2.95881 4.98689 1.27469 3.7122 1.20339 0.532033 2.42678 1.08203 2.9283 1.71664 1.68271 50.1037 13.6059
internal_count=3592 443 280 222 159 121 58 82 63 49 47 163 3149 3062 557 234 87 151 160 52 108 46 41 110 44 79 48 54 2505 675
is_linear=0
shrinkage=0.1


Tree=21
num_leaves=31
num_cat=0
split_feature=1 4 7 7 0 7 9 0 9 7 7 3 7 7 7 7 10 0 10 0 7 7 10 3 0 10 10 0 10 10
split_gain=91.618 43.7185 13.5029 6.24528 4.4872 3.83059 4.7361 7.05687 2.70254 4.94719 2.05055 0.638771 1.46731 10.3831 0.831885 10.6749 0.484832 0.0114976 0.000838306 0.000436518 0.000406149 0.000391207 0.000284308 0.000277024 0.000158507 7.35225e-05 0.000171883 6.67771e-05 4.87952e-05 4.20605e-05
threshold=1.0000000180025095e-35 0.15900000000000003 44.500000000000007 8.5000000000000018 11.023791790008547 9.5000000000000018 1.0000000180025095e-35 11.023791790008547 1.0000000180025095e-35 2.5000000000000004 35.500000000000007 1.0500000000000003 31.500000000000004 29.500000000000004 10.500000000000002 9.5000000000000018 16.000000000000004 11.835000038146974 13.000000000000002 11.835000038146974 28.500000000000004 11.500000000000002 225.79895019531253 1.0500000000000003 12.20307493209839 329.79135131835943 533.26531982421886 9.8522000312805194 167.89019775390628 75.914794921875014
decision_type=2 2 2 2 2 2 2 2 2 2 2 2 2 2 2 2 2 2 2 2 2 2 2 2 2 2 2 2 2 2
left_child=11 2 3 4 8 -5 7 -7 -2 -10 16 17 13 14 15 25 -9 -1 -3 -14 21 -16 -21 27 -23 -13 -27 -4 -26 -20
right_child=1 18 23 5 -6 6 -8 10 9 -11 -12 12 19 -15 20 -17 -18 -19 29 22 -22 24 -24 -25 28 26 -28 -29 -30 -31
leaf_value=-0.085450463414992961 -0.097923579624178136 -0.087708121171712505 -0.085443052252758112 0.22066323334317839 0.13320463809810476 0.0099069359648091722 0.19847854582746152 0.17618349909028452 -0.085788106970650757 0.19026536439850061 0.085745388734908709 -0.085600437114279351 -0.085455835928959722 0.32545337179338735 -0.088172493414224978 0.32258949277088367 0.13998835885796695 -0.094390995495489238 -0.084257899518427895 -0.085976766867180435 -0.088618983070735735 -0.08544290406606074 -0.088180042216234267 -0.087956808773737433 -0.087131021054249136 -0.087361214099134096 -0.085443346368628117 -0.086666298177972584 -0.086186576806032519 -0.085478666837728631
leaf_weight=50.532058607786894 2.037358118221162 1.9264075476676215 1.0114385001361363 6.2892556563019744 3.9651099815964699 5.2090702056884792 8.8858374059200269 7.9542299062013644 1.2647352218627932 1.3338633142411707 5.0779416337609282 3.3535892143845523 17.070321630686525 0.72461280971765596 0.8962525501847266 0.72910527884960163 6.920634335372597 1.4805456697940815 0.28988770372234185 1.4078077450394624 0.80765515565872181 3.0630044993013144 1.0028816554695366 1.1706755940103901 0.86621298640966449 0.91618334874510743 0.95376848615705967 0.79866204410791386 1.484674274921417 10.688712380826471
leaf_count=1744 18 39 35 24 19 36 33 33 39 13 33 110 588 12 18 15 36 12 32 43 12 106 18 24 20 21 33 18 41 367
internal_value=-0.010674 0.0789368 0.11988 0.132466 0.0551041 0.148962 0.135718 0.113554 -0.0116948 0.0559104 0.140613 -0.0787828 -0.0679631 -0.0430092 -0.0634364 -0.0358494 0.159343 -0.085705 -0.085784 -0.0856337 -0.0865076 -0.0862373 -0.0868934 -0.0867581 -0.0859169 -0.0858806 -0.086383 -0.0859828 -0.0865346 -0.0854464
internal_weight=150.112 64.8238 51.9188 48.938 8.60107 40.337 34.0477 25.1619 4.63596 2.5986 19.9528 85.2887 33.2761 13.7951 13.0704 5.95265 14.8749 52.0126 12.905 19.481 7.1178 6.31014 2.41069 2.98078 5.41389 5.22354 1.86995 1.8101 2.35089 10.9786
internal_count=3592 799 361 284 89 195 171 138 70 52 102 2793 1037 388 376 179 69 1756 438 649 197 185 61 77 167 164 54 53 61 399
is_linear=0
shrinkage=0.1


Tree=22
num_leaves=31
num_cat=0
split_feature=3 1 10 0 0 1 2 1 0 7 7 6 4 6 10 10 10 7 4 4 4 7 7 7 7 7 7 7 7 4
split_gain=12.0277 11.2042 6.87858 1.62972 3.20998 4.13064 2.06857 0.791406 0.395557 0.328954 0.159499 0.0159834 0.0126635 0.00743101 0.00328856 0.000305203 2.0065e-05 1.07528e-05 1.90089e-06 1.58279e-06 1.0158e-06 4.09215e-07 3.84559e-07 4.14087e-07 2.23428e-07 2.95411e-07 1.91445e-07 1.67555e-07 1.12152e-07 9.75122e-08
threshold=0.9900000000000001 1.0000000180025095e-35 138.07458496093753 11.023791790008547 11.274474620819094 1.0000000180025095e-35 1.0000000180025095e-35 1.0000000180025095e-35 11.835000038146974 39.500000000000007 40.500000000000007 17.500000000000004 0.27200000000000008 47.000000000000007 13.000000000000002 55.407501220703132 145.49761962890628 37.500000000000007 0.17650000000000002 0.18650000000000003 0.12000000000000001 8.5000000000000018 9.5000000000000018 16.500000000000004 9.5000000000000018 43.500000000000007 24.500000000000004 32.500000000000007 12.500000000000002 0.24850000000000003
decision_type=2 2 2 2 2 2 2 2 2 2 2 2 2 2 2 2 2 2 2 2 2 2 2 2 2 2 2 2 2 2
left_child=1 2 -1 7 5 -5 -7 15 -6 19 -11 14 -13 16 -10 -2 17 -3 -8 21 22 -9 -16 -24 -22 26 29 -25 -23 -26
right_child=3 13 -4 4 8 6 18 9 11 10 -12 12 -14 -15 20 -17 -18 -19 -20 -21 24 28 23 27 25 -27 -28 -29 -30 -31
leaf_value=0.24319630936056358 -0.086608438939060631 -0.084047191448407499 -0.083691475560731754 -0.083684500149970753 -0.15754354980450014 0.10906274031871908 -0.084010582964442262 -0.083833131468255204 -0.090322832107651352 -0.16439510793980142 -0.11958400213263934 -0.090711228270497712 -0.10518152523372926 -0.095521814462274049 -0.083753672397211473 -0.083677972579908264 -0.083678530979850507 -0.084818569452675685 -0.083677636427787735 -0.083677939683745789 -0.083698777687057815 -0.084056985469420642 -0.084080481726677855 -0.08379911641712362 -0.08380865062079218 -0.083652226268641536 -0.083891559362331988 -0.083941202655601885 -0.083952270745808966 -0.083703271043238034
leaf_weight=3.235109031200408 0.37182701518759387 0.45565722417086396 0.80363460117951024 3.3673851089552027 1.0651140892878173 2.8320108382031326 0.37680207705125202 0.21456496883183618 1.3038788354024293 2.3957312107086186 1.1882733223028479 1.3503450456191788 1.0953726352890951 0.80122134089469899 0.13429663842543949 8.043610390275715 1.0596333104185758 0.29948870558291674 0.3146896855905652 0.34450998809188604 0.52565729318303034 0.20074230013415217 0.15423367288894951 0.14015068337903358 0.26069973688572645 0.13830523286014795 0.20924481126712635 0.20351179805584252 0.20852542668581009 0.13240922894328833
leaf_count=12 36 48 159 675 39 21 40 31 30 8 64 39 12 6 23 1635 215 15 64 70 105 20 18 27 40 32 31 27 24 26
internal_value=-0.0465019 0.073723 0.178152 -0.0766113 -0.052432 -0.00448693 0.0712016 -0.101977 -0.101646 -0.135565 -0.149538 -0.0911049 -0.0971921 -0.0875006 -0.086456 -0.0838075 -0.0839592 -0.0843531 -0.0838591 -0.08385 -0.0838003 -0.083945 -0.0839038 -0.0839444 -0.0837486 -0.083784 -0.0838143 -0.0838833 -0.0840036 -0.0837732
internal_weight=33.2266 6.65474 4.03874 26.5719 13.6041 6.89089 3.5235 12.9678 6.71322 4.55235 3.584 5.64811 2.44572 2.616 3.20239 8.41544 1.81478 0.755146 0.691492 0.968343 1.89851 0.623833 0.632193 0.497896 1.26632 0.740659 0.602354 0.343662 0.409268 0.393109
internal_count=3592 455 171 3137 1249 800 125 1888 449 217 72 410 51 284 359 1671 278 63 104 145 329 75 95 72 234 129 97 54 44 66
is_linear=0
shrinkage=0.1


Tree=23
num_leaves=31
num_cat=0
split_feature=3 0 7 1 7 10 4 4 6 6 4 10 0 1 4 0 4 7 7 7 2 7 0 10 7 7 0 10 7 10
split_gain=4.90881 12.1391 4.43815 5.92613 1.49589 1.17119 1.13025 0.0734955 0.0325024 0.000449534 1.59397e-05 4.75915e-06 2.77469e-06 8.17332e-07 1.06288e-06 6.2259e-07 5.87341e-07 2.55367e-07 1.78106e-07 1.16541e-07 2.12751e-07 1.84074e-07 1.06093e-07 5.56839e-08 2.86375e-08 1.01355e-08 2.35708e-08 5.94189e-09 3.30656e-09 3.24175e-09
threshold=1.1600000000000001 11.835000038146974 35.500000000000007 1.0000000180025095e-35 8.5000000000000018 48.320007324218757 0.25150000000000006 0.11350000000000002 30.000000000000004 41.500000000000007 0.39100000000000007 345.21411132812506 11.835000038146974 1.0000000180025095e-35 0.15900000000000003 9.8522000312805194 0.13700000000000004 13.500000000000002 27.500000000000004 38.500000000000007 1.0000000180025095e-35 7.5000000000000009 14.674079895019533 191.23016357421878 12.500000000000002 7.5000000000000009 28.003607749938968 355.56523132324224 37.500000000000007 183.35394287109378
decision_type=2 2 2 2 2 2 2 2 2 2 2 2 2 2 2 2 2 2 2 2 2 2 2 2 2 2 2 2 2 2
left_child=9 -2 4 6 5 -3 -4 -6 10 12 17 25 13 -1 15 -15 28 -9 22 21 -21 -17 29 -24 -23 26 -7 -26 -14 -19
right_child=1 2 3 -5 7 11 -8 8 -10 -11 -12 -13 16 14 -16 19 -18 18 -20 20 -22 24 23 -25 27 -27 -28 -29 -30 -31
leaf_value=-0.083578283888823213 0.48732827118235483 0.10670919018300361 0.050827544774380465 0.24030234839726378 -0.13268524883591207 -0.083654009118969169 -0.1009573039076067 -0.083845461796075466 -0.10658780699504362 -0.086509191714646091 -0.084601765809536877 -0.08416453959366732 -0.08372943377569031 -0.083576877771100094 -0.083576474944704771 -0.083672019159448288 -0.083937248743664095 -0.083592256608350901 -0.083806258139156695 -0.083583396564149134 -0.08377900230562349 -0.083829790555583095 -0.083767841691292838 -0.083660620050724763 -0.083796850389561625 -0.083579309109194672 -0.083583646180456384 -0.083768885936495521 -0.083748339702771402 -0.083620226698266867
leaf_weight=8.898996824398635 0.5103333592414846 0.69341766647994318 0.88028926751576375 1.3079363198485225 0.84096890687942538 0.085571758914738894 1.1081757508218286 0.16030482412315938 1.9176272068871183 0.55759563669562417 0.31930671376176178 0.2728100623935461 0.27046296838671047 0.25800636829808288 1.1220679201651362 0.13803880847990513 0.2237251466140151 0.084875806467607617 0.11789129767566919 0.10080789821222425 0.12400222523137927 0.21572033502161503 0.098044960177503526 0.095725271617993712 0.14476592047140002 0.13723708083853126 0.10731332609429955 0.15991605399176478 0.14059787197038531 0.080965908709913492
leaf_count=2541 3 6 36 26 3 19 10 25 21 18 22 34 48 74 323 29 27 23 18 31 21 31 21 21 22 39 30 26 24 20
internal_value=-0.0430547 0.0139359 -0.0151414 0.0749802 -0.0744138 0.0180776 -0.0337625 -0.106683 -0.0990758 -0.0837346 -0.084025 -0.0838555 -0.0836035 -0.0835919 -0.0836456 -0.0837135 -0.0838069 -0.0837363 -0.0836996 -0.0837535 -0.0836913 -0.0837747 -0.0836646 -0.0837149 -0.0838019 -0.0836001 -0.0836149 -0.0837822 -0.0837359 -0.0836059
internal_weight=21.1735 8.8188 8.30846 3.2964 5.01206 1.29635 1.98847 3.71571 2.87474 12.3547 0.957115 0.602932 11.7971 11.1623 2.26333 1.14126 0.634786 0.637808 0.477503 0.883251 0.22481 0.658441 0.359612 0.19377 0.520402 0.330122 0.192885 0.304682 0.411061 0.165842
internal_count=3592 377 374 72 302 128 46 174 171 3215 150 122 3197 3098 557 234 99 128 103 160 52 108 85 42 79 88 49 48 72 43
is_linear=0
shrinkage=0.1


Tree=24
num_leaves=31
num_cat=0
split_feature=0 1 4 3 9 7 7 9 0 4 10 7 7 10 0 3 0 10 4 10 0 7 7 7 7 7 4 0 4 7
split_gain=92.9603 33.3858 24.7725 18.2167 14.3022 9.40763 11.2685 5.74477 7.95466 4.73389 9.76584 3.78293 6.60601 2.06867 0.958032 2.04268 0.817489 2.68644 0.383351 0.214907 0.138162 0.580964 2.51136 0.0379904 0.036522 0.0250381 0.0521731 0.0181643 0.00829943 0.00561724
threshold=11.589474678039553 1.0000000180025095e-35 0.15900000000000003 1.1850000000000003 1.0000000180025095e-35 6.5000000000000009 44.500000000000007 1.0000000180025095e-35 11.023791790008547 0.16700000000000004 208.6244812011719 15.500000000000002 43.500000000000007 376.63204956054693 13.20687246322632 1.5650000000000002 13.20687246322632 167.89019775390628 0.13700000000000004 191.82226562500003 11.023791790008547 31.500000000000004 28.500000000000004 9.5000000000000018 33.500000000000007 40.500000000000007 0.44500000000000006 13.20687246322632 0.11700000000000001 21.500000000000004
decision_type=2 2 2 2 2 2 2 2 2 2 2 2 2 2 2 2 2 2 2 2 2 2 2 2 2 2 2 2 2 2
left_child=1 20 5 18 9 28 7 8 13 10 11 23 -13 -7 -11 -16 -6 -18 27 -17 -1 22 -22 -5 -10 -4 -27 29 -3 -2
right_child=3 2 25 4 16 6 -8 -9 24 14 -12 12 -14 -15 15 19 17 -19 -20 -21 21 -23 -24 -25 -26 26 -28 -29 -30 -31
leaf_value=0.087698926839962249 -0.11491374926632442 0.097212783911538314 0.087680984156990924 0.089558856487108499 -0.13033852593556325 -0.05013701822918272 0.090141435158870936 -0.18223427528495689 -0.13506046958777998 0.094988132433109787 -0.13901422489992002 -0.093959882677158546 0.092294884691761739 0.028781509857858351 -0.030212297302569954 0.047977086791100972 -0.018063804947592053 -0.12564567780905581 -0.14311121615518385 0.089219031592794762 0.087751175961775299 0.087676420453444759 -0.028246413206375293 0.10846948377446269 -0.12336446871558021 0.087650345728911588 0.11221636779691857 -0.12338443650865348 0.088150565491568494 -0.11907143019318318
leaf_weight=103.66871478036046 5.7157724797725731 1.7624092698097218 15.151999320834877 3.1329113431274944 6.7250479012727746 7.8898981511592901 3.9943192787468424 5.3826433420181266 6.8919905126094818 4.5415262654423705 5.0635633319616309 4.6170717794448137 3.2409295933321118 5.736390084028244 2.8794024214148504 2.0028568441048265 3.722433865070343 6.1658362001180649 10.265855133533476 3.422671165317297 7.8951137252151948 31.237084895372391 2.4442571699619293 1.6073793470859525 4.3579917401075363 2.3037495948374267 1.3838307373225687 7.7023281902074805 2.3690699525177479 7.5311210006475449
leaf_count=1830 24 12 268 47 30 36 56 19 27 40 21 32 36 24 18 38 27 27 36 48 138 553 20 10 21 41 14 30 39 30
internal_value=0.0244686 0.0602575 -0.00443624 -0.0680316 -0.028783 -0.0505309 -0.0677244 -0.0885634 -0.0682952 0.0118716 -0.0217233 0.0254188 -0.0171415 -0.0169139 0.0580593 0.0378649 -0.10344 -0.0851465 -0.12728 0.0739944 0.0857457 0.0808756 0.060329 0.0959712 -0.13053 0.0894794 0.0968692 -0.119523 0.0920163 -0.117277
internal_weight=280.806 202.469 57.2243 78.3367 47.1216 38.3847 34.2532 30.2589 24.8763 30.5083 17.6619 12.5983 7.858 13.6263 12.8465 8.30493 16.6133 9.88827 31.2151 5.42553 145.245 41.5765 10.3394 4.74029 11.25 18.8396 3.68758 20.9492 4.13148 13.2469
internal_count=3592 3098 557 494 374 234 183 127 108 290 146 125 68 60 144 104 84 54 120 86 2541 711 158 57 48 323 55 84 51 54
is_linear=0
shrinkage=0.1


Tree=25
num_leaves=31
num_cat=0
split_feature=10 7 7 7 6 10 8 0 0 0 6 10 4 0 0 4 6 9 4 4 3 0 0 0 4 0 1 4 7 0
split_gain=16.4923 6.10281 10.5537 3.70932 8.03594 3.1188 3.18596 3.59098 2.09207 4.94433 1.55904 0.126571 0.114223 0.0319275 0.0145775 0.00386044 0.00106579 0.000845336 0.00133936 0.000615352 0.000448452 0.00028642 0.000229735 6.19844e-05 4.48179e-05 1.57794e-05 1.31616e-05 2.37904e-05 1.27408e-05 7.83506e-06
threshold=171.48864746093753 14.500000000000002 27.500000000000004 50.500000000000007 12.500000000000002 106.57318115234376 1.0000000180025095e-35 13.20687246322632 14.674079895019533 16.98000001907349 36.500000000000007 131.05328369140628 0.27200000000000008 26.534322738647464 18.012921333312992 0.21950000000000003 13.500000000000002 1.0000000180025095e-35 0.11700000000000001 0.20650000000000002 1.1850000000000003 12.20307493209839 13.20687246322632 22.601091384887699 0.11700000000000001 11.023791790008547 1.0000000180025095e-35 0.15900000000000003 38.500000000000007 11.835000038146974
decision_type=2 2 2 2 2 2 2 2 2 2 2 2 2 2 2 2 2 2 2 2 2 2 2 2 2 2 2 2 2 2
left_child=1 10 5 12 14 6 7 20 17 -10 13 -7 15 16 -5 19 24 21 -19 22 25 26 29 -11 -1 -3 -2 28 -28 -4
right_child=8 2 3 4 -6 11 -8 -9 9 23 -12 -13 -14 -15 -16 -17 -18 18 -20 -21 -22 -23 -24 -25 -26 -27 27 -29 -30 -31
leaf_value=-0.085358912725311764 -0.084031205307718848 -0.084017670541523815 -0.084061032117412893 -0.084192344193749158 0.16331667082692208 0.19996659952927695 0.19395455025471575 0.093334314083388353 0.28039530949293973 -0.085847702915703789 0.078917755088685773 0.16623396474176738 -0.12544970228517646 -0.10948962617004961 -0.10248639733065371 -0.096203481810633915 -0.087844910235207019 -0.088158386875827777 -0.084100181475861693 -0.089501826461786532 -0.087768229295045991 -0.086892424991646955 -0.086502147714201116 -0.084257323664369416 -0.084109951977098724 -0.084836871662070545 -0.084673597454703861 -0.084018824067207884 -0.084169577781436244 -0.08455061682012871
leaf_weight=0.33360520005226479 19.82701152749361 0.55258782114833749 0.59436668967828132 2.1375550646334891 2.421446705237031 2.4027114585042 1.7643703222274778 3.6745306774973869 0.53863558173179527 0.34500444307923295 0.63227963726967562 2.0711762141436338 1.0777878165245054 0.65456297993659962 0.54705011844634999 0.41717988252639759 1.2915459573268888 1.4008472319692367 1.9388512047007678 0.38075777236372221 0.64887669961899519 0.36410868540406127 0.7715711724013089 0.84599518310278654 2.070485046133399 0.40928456000983715 1.240548589266836 2.6681657279841602 0.84190779551863659 0.72633588127791882
leaf_count=12 2022 57 59 193 24 15 6 20 6 12 9 39 22 3 3 3 39 39 188 9 21 14 23 68 198 21 69 276 77 45
internal_value=-0.0274928 0.0315039 0.055527 -0.0251384 0.0312241 0.119046 0.077602 0.0387604 -0.0777789 0.028984 -0.0678076 0.18435 -0.097666 -0.0891334 -0.0879202 -0.0873052 -0.085528 -0.0843083 -0.0858024 -0.0858041 -0.0857367 -0.0841083 -0.0851312 -0.084718 -0.0842833 -0.0843662 -0.084067 -0.0842165 -0.0844698 -0.0843303
internal_weight=55.5911 25.5801 20.5976 9.07405 5.10605 11.5235 7.04965 5.28528 30.0111 1.72964 4.98248 4.47389 3.968 4.3502 2.68461 2.89021 3.69564 28.2814 3.3397 2.47303 1.61075 24.9417 2.09227 1.191 2.40409 0.961872 24.5776 4.75062 2.08246 1.3207
internal_count=3592 821 560 381 220 179 125 119 2771 86 261 54 161 252 196 139 249 2685 227 136 99 2458 127 80 210 78 2444 422 146 104
is_linear=0
shrinkage=0.1


Tree=26
num_leaves=31
num_cat=0
split_feature=3 0 7 9 7 7 7 7 7 3 0 9 0 1 4 0 4 10 10 7 7 2 10 4 7 7 0 7 7 1
split_gain=59.587 10.285 5.51628 3.91683 5.60534 2.85787 2.71558 0.850105 0.315862 0.115247 0.0257327 0.00101009 0.000388752 0.000168976 0.000209862 0.00011771 9.12097e-05 3.98e-05 2.32319e-05 3.03893e-05 1.33311e-05 8.49068e-06 4.45121e-06 3.99994e-06 3.19109e-06 1.36928e-06 7.04761e-07 3.33753e-06 1.92195e-05 3.16327e-07
threshold=1.1200000000000003 14.674079895019533 50.500000000000007 1.0000000180025095e-35 32.500000000000007 10.500000000000002 53.500000000000007 7.5000000000000009 20.500000000000004 1.1450000000000002 12.401374816894533 1.0000000180025095e-35 11.835000038146974 1.0000000180025095e-35 0.15900000000000003 9.8522000312805194 0.13700000000000004 132.84048461914065 173.13000488281253 38.500000000000007 7.5000000000000009 1.0000000180025095e-35 261.56518554687506 0.28300000000000008 12.500000000000002 21.500000000000004 11.023791790008547 31.500000000000004 28.500000000000004 1.0000000180025095e-35
decision_type=2 2 2 2 2 2 2 2 2 2 2 2 2 2 2 2 2 2 2 2 2 2 2 2 2 2 2 2 2 2
left_child=12 2 3 4 5 7 -4 -2 -5 -8 -9 17 13 26 15 -15 25 -3 -17 20 -20 -21 29 -24 -22 -14 -1 28 -28 -19
right_child=1 11 6 8 -6 -7 9 10 -10 -11 -12 -13 16 14 -16 18 -18 22 19 21 24 -23 23 -25 -26 -27 27 -29 -30 -31
leaf_value=-0.084546432440709099 0.091254792415750408 -0.085771698443833422 0.083077334220061833 0.16451598979376844 0.13536629287896729 -0.097301347349059139 -0.13514124440985451 0.02509302801325778 0.13383680416568289 -0.085377639545553247 0.0090148395988367686 -0.088925032457563793 -0.085208058416732402 -0.084543716772380456 -0.084541901708675482 -0.086073555297036183 -0.086473059059578833 -0.084676803281303226 -0.085312093837944372 -0.084719013705038593 -0.085964025656854182 -0.085321656364844817 -0.085124673869709233 -0.084711130599528089 -0.08571077434432528 -0.085403857215895412 -0.084545976082423688 -0.084546694020276814 -0.085250456279754458 -0.084564807518777846
leaf_weight=31.056688910350204 2.5898597650229913 0.48795476602390397 1.233057897537946 5.109983704984189 7.5622479841113099 1.7451115027070043 0.85102343559265126 2.1840386241674423 9.7764324545860273 1.0269678570330141 1.8290831372141836 0.84854847192764271 0.61716297268867426 1.2530696578323821 5.4513405784964561 0.96263346076011647 1.2959844991564748 0.83817073144018672 0.69413746148347932 0.45315398462116707 0.87349892593920264 0.48294699750840664 0.5063999518752097 0.43463338539004326 1.1560262832790611 0.84782706946134567 2.1036154627799983 9.0474110376089794 0.47464043274521817 0.36073250323534012
leaf_count=1830 35 41 9 24 38 39 3 39 39 46 8 12 24 74 323 29 33 45 26 26 25 18 21 23 36 30 124 533 18 21
internal_value=-0.0201481 0.0778846 0.0946795 0.107499 0.073003 0.0165102 -0.0322236 0.0465896 0.144368 -0.107928 0.017765 -0.0859253 -0.0847046 -0.0846454 -0.0849888 -0.0854034 -0.085862 -0.0849567 -0.0856364 -0.0855215 -0.0856904 -0.0850299 -0.0847709 -0.0849337 -0.0858198 -0.0853214 -0.0845543 -0.0845753 -0.0846757 -0.0846431
internal_weight=94.1544 37.3842 33.9078 30.7968 15.9103 8.34809 3.11105 6.60298 14.8864 1.87799 4.01312 3.47644 56.7701 54.0092 11.3268 5.87547 2.76097 2.62789 4.6224 3.65976 2.72366 0.936101 2.13994 0.941033 2.02953 1.46499 42.6824 11.6257 2.57826 1.1989
internal_count=3592 443 280 222 159 121 58 82 63 49 47 163 3149 3062 557 234 87 151 160 131 87 44 110 44 61 54 2505 675 142 66
is_linear=0
shrinkage=0.1


Tree=27
num_leaves=31
num_cat=0
split_feature=1 4 7 9 7 7 7 0 0 9 7 10 3 7 7 7 7 7 0 10 10 7 0 0 10 10 10 0 10 10
split_gain=73.8586 32.7442 6.66366 6.85732 5.14065 3.72743 4.07365 4.23296 3.50304 2.30165 6.81443 0.855987 0.69465 1.49818 7.00841 0.858051 7.28273 0.522835 0.00867441 0.000736725 0.000549789 0.000391274 0.000366325 0.000355516 0.000231927 0.000180128 0.000115438 4.6547e-05 0.000203377 2.63215e-05
threshold=1.0000000180025095e-35 0.15900000000000003 42.500000000000007 1.0000000180025095e-35 8.5000000000000018 39.500000000000007 9.5000000000000018 11.023791790008547 11.023791790008547 1.0000000180025095e-35 6.5000000000000009 117.80502319335939 1.0500000000000003 31.500000000000004 29.500000000000004 10.500000000000002 9.5000000000000018 24.500000000000004 11.835000038146974 13.000000000000002 387.65185546875006 28.500000000000004 11.835000038146974 11.835000038146974 225.79895019531253 392.20172119140631 146.46069335937503 11.835000038146974 208.6244812011719 298.73654174804693
decision_type=2 2 2 2 2 2 2 2 2 2 2 2 2 2 2 2 2 2 2 2 2 2 2 2 2 2 2 2 2 2
left_child=12 2 4 20 8 6 -6 -8 9 -2 29 17 18 14 15 16 27 -9 -1 -3 -4 23 -15 -17 -24 26 -25 -14 -29 -11
right_child=1 19 3 -5 5 -7 7 11 -10 10 -12 -13 13 22 -16 21 -18 -19 -20 -21 -22 -23 24 25 -26 -27 -28 28 -30 -31
leaf_value=-0.085122087280971315 -0.097027439943440055 -0.087365936307006647 -0.088134327556507963 0.18524028841048848 0.19147123922491266 0.2160809640526393 0.033924570775931001 0.15690438964578568 0.11431836408320162 -0.085563679503111167 0.24028813050010714 0.095568579438491771 -0.085130295438940781 -0.085126779180061521 0.21870270795734328 -0.085115797748526539 0.21540004344739075 0.11813019970106649 -0.093243623494692437 -0.085123572195375058 -0.085505281696382246 -0.08835303148363241 -0.085639915977356942 -0.08695915071783028 -0.087747878205549065 -0.087841679075749884 -0.085403944004751278 -0.085324988309847707 -0.087367574148927193 -0.086380254906243015
leaf_weight=43.024182051420212 1.942673385143278 1.7368013709783543 1.9840888389735476 1.2828751206398008 6.3610674440860739 4.5189978107810012 6.7547052055597332 7.5904167294502276 3.9242065101861954 0.76898577064275764 1.0760799050331114 6.6489678416401139 1.7574491333216427 14.535427168011667 0.96923372894525606 2.6571961175650358 0.97731078788638104 6.4180753757245839 1.3565811663866032 9.368947013106661 1.3277048598974941 0.77164247632026661 1.2390513464342796 0.92948492616415046 0.90184504911303509 0.95644862949848164 0.98102454841136932 2.1519126836210494 0.63022511824965466 0.81112563237547874
leaf_count=1744 18 39 39 5 24 23 35 30 19 27 4 39 71 588 12 108 15 30 12 399 47 12 43 22 18 20 35 80 13 21
internal_value=-0.00974815 0.0702378 0.103875 -0.0110458 0.115154 0.130788 0.119375 0.102645 0.0449161 -0.0143048 0.0461965 0.125116 -0.0774682 -0.065563 -0.039804 -0.0610145 -0.0322233 0.13914 -0.0853703 -0.0854743 -0.0870803 -0.0862437 -0.0853067 -0.0859491 -0.0865279 -0.0867214 -0.0861606 -0.0855332 -0.0857877 -0.0859829
internal_weight=136.355 62.5157 51.41 4.59467 46.8153 38.2922 33.7732 27.4122 8.52307 4.59886 2.65619 20.6575 73.839 29.4583 12.7819 11.8127 5.5169 14.0085 44.3808 11.1057 3.31179 6.2958 16.6763 5.52415 2.1409 2.86696 1.91051 4.53959 2.78214 1.58011
internal_count=3592 799 361 91 270 181 158 134 89 70 52 99 2793 1037 388 376 179 60 1756 438 86 197 649 185 61 77 57 164 93 48
is_linear=0
shrinkage=0.1


Tree=28
num_leaves=31
num_cat=0
split_feature=3 1 0 0 0 1 2 1 7 0 7 6 4 6 10 10 0 7 4 4 7 7 10 7 7 7 7 7 0 10
split_gain=9.99601 8.10687 4.3557 1.42773 2.73928 3.47469 1.75988 0.524613 0.21354 0.213274 0.105244 0.0124584 0.0099201 0.00458111 0.00199818 0.00019011 1.51534e-05 7.6896e-06 1.45242e-06 9.661e-07 3.20427e-07 4.53548e-07 3.05863e-07 2.3773e-07 2.08732e-07 2.43953e-07 1.52143e-07 1.21402e-07 1.26518e-07 7.05253e-08
threshold=0.9900000000000001 1.0000000180025095e-35 11.835000038146974 11.023791790008547 11.274474620819094 1.0000000180025095e-35 1.0000000180025095e-35 1.0000000180025095e-35 39.500000000000007 11.835000038146974 40.500000000000007 17.500000000000004 0.27200000000000008 47.000000000000007 13.000000000000002 55.407501220703132 11.835000038146974 37.500000000000007 0.18650000000000003 0.12000000000000001 9.5000000000000018 16.500000000000004 233.88406372070315 7.5000000000000009 9.5000000000000018 43.500000000000007 32.500000000000007 24.500000000000004 12.002399921417238 344.08851623535162
decision_type=2 2 2 2 2 2 2 2 2 2 2 2 2 2 2 2 2 2 2 2 2 2 2 2 2 2 2 2 2 2
left_child=1 2 -1 7 5 -5 -7 15 18 -6 -10 14 -13 16 -11 -2 -3 -18 23 20 -16 -22 -8 -9 -21 27 -23 28 -26 -25
right_child=3 13 -4 4 9 6 22 8 10 11 -12 12 -14 -15 19 -17 17 -19 -20 24 21 26 -24 29 25 -27 -28 -29 -30 -31
leaf_value=-0.083637458490766176 -0.086125597326664569 -0.083626366302024635 0.19224983955611877 -0.083633938273757896 -0.14050437293888002 0.10388256748150988 -0.083958915637190212 -0.08379926347612468 -0.15088939730464324 -0.089188227335360359 -0.11318686864157801 -0.089846292994367749 -0.10329621631997594 -0.093605588468523737 -0.083721503164652919 -0.08362596354075956 -0.083978227007417916 -0.084668941801738937 -0.083625954444773262 -0.08365244547602349 -0.084049539419691954 -0.083747767555051422 -0.083785587080542359 -0.08397742362200851 -0.083821891712103747 -0.083611243231425353 -0.083891819856483432 -0.083834235775296806 -0.08369367223045561 -0.083894521277980846
leaf_weight=0.68329076981172221 0.3184331436641531 0.90062983101233862 3.5218048095703125 2.8749249605461937 1.0191140775568781 2.5924249151721601 0.12849533418193448 0.16996901622042049 2.36522388458252 1.1315271249040963 1.077754145953804 1.2064710433187431 1.0053166219149714 0.70287054777145375 0.12355596711859096 6.8382158009335399 0.40395220415666699 0.26818451005965471 0.2929024682380259 0.45615421541151568 0.14415936917066574 0.12193653555004857 0.49021435016766191 0.22568906284868717 0.11302418960258365 0.11974131432361901 0.18388330565358046 0.18672369478736073 0.24115327559411526 0.18817238602787256
leaf_count=159 36 215 12 675 39 21 18 26 8 30 64 39 12 6 23 1635 48 15 70 105 18 27 86 25 17 32 27 31 49 24
internal_value=-0.0448691 0.0651437 0.147421 -0.07506 -0.0511521 -0.00377827 0.0677164 -0.100348 -0.127868 -0.0987865 -0.139087 -0.0903403 -0.0959596 -0.086894 -0.0859358 -0.0837372 -0.0838945 -0.0842538 -0.0838077 -0.0837587 -0.0838641 -0.0839033 -0.0838216 -0.0838988 -0.0837045 -0.0837404 -0.0838344 -0.083769 -0.0837346 -0.0839397
internal_weight=30.0959 6.48073 4.2051 23.6152 12.1388 6.08606 3.21113 11.4764 4.31971 6.05276 3.44298 5.03365 2.21179 2.27564 2.82186 7.15665 1.57277 0.672137 0.876733 1.69033 0.573535 0.449979 0.61871 0.58383 1.1168 0.660642 0.30582 0.540901 0.354177 0.413861
internal_count=3592 455 171 3137 1249 800 125 1888 217 449 72 410 51 284 359 1671 278 63 145 329 95 72 104 75 234 129 54 97 66 49
is_linear=0
shrinkage=0.1


Tree=29
num_leaves=31
num_cat=0
split_feature=3 7 1 7 10 7 6 7 6 6 4 10 0 1 4 0 4 4 10 7 7 2 0 7 7 0 7 0 0 7
split_gain=4.56295 6.90433 7.363 1.4017 1.08629 1.04153 0.0741405 0.0575752 0.0202226 0.000319795 5.25897e-06 2.7326e-06 2.30611e-06 8.49806e-07 1.04559e-06 5.81988e-07 5.1643e-07 1.23087e-07 1.13048e-07 1.49301e-07 6.59995e-08 4.24308e-08 2.71905e-08 2.11225e-08 1.71083e-08 2.40391e-08 1.56175e-08 1.20825e-08 3.97655e-09 1.78106e-08
threshold=1.1600000000000001 39.500000000000007 1.0000000180025095e-35 8.5000000000000018 48.320007324218757 42.500000000000007 13.500000000000002 34.500000000000007 23.000000000000004 41.500000000000007 0.39100000000000007 345.21411132812506 11.835000038146974 1.0000000180025095e-35 0.15900000000000003 9.8522000312805194 0.13700000000000004 0.12800000000000003 173.13000488281253 38.500000000000007 7.5000000000000009 1.0000000180025095e-35 12.002399921417238 18.500000000000004 7.5000000000000009 28.003607749938968 12.500000000000002 13.20687246322632 11.023791790008547 31.500000000000004
decision_type=2 2 2 2 2 2 2 2 2 2 2 2 2 2 2 2 2 2 2 2 2 2 2 2 2 2 2 2 2 2
left_child=9 3 5 4 -2 -3 7 10 -8 12 17 24 13 28 15 -15 27 -5 -17 20 -20 -21 -19 -24 25 -6 -22 -14 -1 -30
right_child=1 2 -4 6 11 -7 8 -9 -10 -11 -12 -13 16 14 -16 18 -18 22 19 21 26 -23 23 -25 -26 -27 -28 -29 29 -31
leaf_value=-0.083540448550940449 0.10679244874451471 0.05391535705372328 0.24459935134779665 -0.083756511664985642 -0.08363264127141129 -0.099447905039331708 -0.11941943399856042 -0.0075183971158211058 -0.10121097094832046 -0.086162993464900084 -0.084318843399198207 -0.084031819012685499 -0.083676388277969249 -0.083539990539943917 -0.083539685252902174 -0.083795713406745631 -0.083890420678569444 -0.083694389623845608 -0.083668966825239124 -0.08356952630994674 -0.083777863820563986 -0.08367110860378231 -0.083596210915419633 -0.083665703337116856 -0.083542526346022439 -0.083558302111473054 -0.083735832808351937 -0.083713148862337439 -0.08356201848882451 -0.083540494223867418
leaf_weight=5.4308803398162109 0.69636062812059918 0.7810473516583446 2.0307215522043407 0.17515858460683409 0.079398485366255045 1.0225897969212381 0.93334564659744534 0.1170089696533978 1.7603248382220043 0.49857027595862824 0.19180596875958145 0.23195826495066285 0.20482414774596769 0.21911744773387887 0.95322493067942549 0.17132498300634325 0.20664479490369558 0.086809612810611725 0.12240871647372842 0.079377796500921249 0.15540181426331401 0.085313231451436877 0.10152275860309601 0.076847304590046406 0.11678983736783266 0.096207692753523588 0.20505360793322325 0.15867758821696043 0.50200228486210141 1.6414810130372641
leaf_count=1830 6 6 27 39 19 35 18 10 36 18 16 34 42 74 323 29 27 17 26 26 25 18 28 17 39 30 36 30 158 553
internal_value=-0.0400347 0.0145964 0.114003 -0.0671359 0.0249346 -0.0330355 -0.0997812 -0.0719547 -0.10752 -0.0836904 -0.0838818 -0.0837755 -0.0835688 -0.0835572 -0.0836153 -0.0836847 -0.0837642 -0.0836915 -0.0837235 -0.0837044 -0.0837324 -0.0836221 -0.0836485 -0.0836262 -0.0835722 -0.0835919 -0.083754 -0.0836924 -0.0835419 -0.0835455
internal_weight=19.1322 8.4979 3.83436 4.66354 1.22071 1.80364 3.44282 0.749153 2.69367 10.6343 0.632144 0.524354 10.1357 9.56559 1.99122 1.038 0.570147 0.440338 0.81888 0.647555 0.482864 0.164691 0.26518 0.17837 0.292396 0.175606 0.360455 0.363502 7.57436 2.14348
internal_count=3592 377 68 309 128 41 181 127 54 3215 117 122 3197 3098 557 234 99 101 160 131 87 44 62 45 88 49 61 72 2541 711
is_linear=0
shrinkage=0.1


Tree=30
num_leaves=31
num_cat=0
split_feature=0 1 4 3 9 7 7 7 4 7 9 0 7 10 0 4 4 7 0 10 4 0 7 7 7 0 7 7 7 0
split_gain=74.6034 29.4928 20.1699 14.8582 11.5228 7.33547 6.56391 4.02553 4.776 4.32631 3.26798 4.71512 2.41743 1.83866 2.77017 7.13807 1.4145 1.10708 0.695244 2.26464 0.176917 0.152943 0.609854 5.65765 0.0577409 0.0250176 0.0156013 0.0506575 0.00591682 0.00491484
threshold=11.589474678039553 1.0000000180025095e-35 0.15900000000000003 1.1850000000000003 1.0000000180025095e-35 6.5000000000000009 41.500000000000007 43.500000000000007 0.41200000000000003 9.5000000000000018 1.0000000180025095e-35 11.023791790008547 44.500000000000007 106.57318115234376 15.635099887847902 0.14750000000000002 0.15650000000000003 15.500000000000002 13.20687246322632 167.89019775390628 0.13700000000000004 11.023791790008547 31.500000000000004 29.500000000000004 58.500000000000007 13.20687246322632 40.500000000000007 50.500000000000007 10.500000000000002 9.8522000312805194
decision_type=2 2 2 2 2 2 2 2 2 2 2 2 2 2 2 2 2 2 2 2 2 2 2 2 2 2 2 2 2 2
left_child=1 21 5 20 7 29 10 8 9 16 11 17 -8 -11 -15 -16 -5 -7 -6 -20 25 -1 23 -23 -9 -2 -4 -28 -10 -3
right_child=3 2 26 4 18 6 12 24 28 13 -12 -13 -14 14 15 -17 -18 -19 19 -21 -22 22 -24 -25 -26 -27 27 -29 -30 -31
